SVM-light Version V6.02
0 # kernel type
3 # kernel parameter -d 
1 # kernel parameter -g 
1 # kernel parameter -s 
1 # kernel parameter -r 
empty# kernel parameter -u 
8068 # highest feature index 
561 # number of training documents 
41 # number of support vectors plus 1 
1.0884938 # threshold b, each following line is a SV (starting with alpha*y)
-0.003056746369070374 12:1 36:1 80:2 116:1 203:1 272:1 325:1 730:1 998:1 1717:1 2552:1 2570:1 5271:1 6206:1 8066:1 8067:2 8068:1 #
-0.00070208493192134387 36:1 58:1 80:2 101:1 144:1 145:1 209:1 274:1 317:1 533:1 664:1 834:1 854:1 1061:1 1922:1 #
-0.00040822924386092139 2:1 12:2 80:3 82:1 107:1 155:1 168:1 172:1 184:1 240:1 277:1 317:1 373:1 377:2 396:3 424:1 606:1 809:1 908:1 974:1 1036:1 1054:1 1131:1 1305:1 1395:1 1396:2 1397:1 1398:1 1399:1 1400:1 1401:1 1402:1 1403:1 1404:1 #
-0.00063869356555082933 2:1 12:1 23:1 80:1 107:1 154:1 424:1 439:1 497:1 534:1 620:1 788:1 886:1 941:1 982:1 1076:1 1077:1 1078:1 1079:3 1080:1 1081:1 1082:1 1083:1 1084:1 1085:1 1086:1 1087:1 1088:2 1089:1 1090:1 1091:1 1092:1 1093:1 1094:1 #
-0.0044097479181697159 2:1 40:1 51:1 79:1 80:3 102:1 181:1 377:1 650:1 664:1 755:1 1538:1 #
0.044632815557604365 80:1 203:1 922:1 1141:1 1919:1 #
0.044632815557604365 2:1 12:2 23:1 36:1 66:1 80:3 98:1 131:1 133:1 168:1 206:1 240:1 241:1 264:2 277:1 290:1 407:1 554:1 664:3 718:1 731:1 732:2 886:1 972:1 998:1 1037:1 1082:1 1503:1 1654:1 1910:1 5365:1 7816:1 7817:1 #
-0.0040223575874392316 2:1 8:4 12:3 36:1 69:1 72:1 79:1 80:4 95:2 171:1 172:1 202:1 240:3 300:1 407:1 486:1 597:1 605:1 655:1 664:2 749:1 765:1 766:1 930:2 954:1 972:1 1154:1 1367:1 1424:1 1554:1 1717:1 2050:1 2108:1 2109:1 2326:1 2446:2 2447:1 2496:1 2497:1 2498:1 2499:1 2500:1 #
-0.0042356160855682983 2:3 12:3 36:2 47:1 58:1 80:4 98:1 126:1 131:1 152:1 158:1 229:1 251:1 257:1 351:1 361:1 373:1 387:1 515:1 732:1 785:2 873:1 967:1 1166:1 1550:1 1566:1 2031:1 2586:1 2748:2 2749:1 2750:1 2751:1 2752:1 2753:1 2754:1 2755:1 2756:1 #
-0.00047289980696618538 2:3 12:2 40:1 46:2 60:1 69:1 94:2 101:3 145:1 161:1 171:1 173:1 174:1 181:1 240:3 285:1 286:2 348:1 407:2 411:1 415:1 443:1 497:1 507:1 531:1 554:1 631:1 655:1 732:1 783:1 922:1 1014:1 1112:1 1234:1 1269:2 1308:1 1508:1 1511:1 1525:1 1568:3 1628:1 1681:1 1878:1 2050:1 2051:1 2052:2 2053:1 2054:1 2055:1 2056:1 2057:1 2058:1 2059:1 2060:1 2061:2 2062:1 2063:1 2064:1 2065:1 2066:1 2067:1 #
-0.0018710241667733035 12:3 28:1 51:1 80:3 98:1 103:1 133:1 171:2 202:2 225:1 232:1 346:1 350:1 388:3 536:1 699:1 731:3 791:1 906:1 938:1 971:1 1022:1 1063:1 1070:2 1112:1 1119:1 1266:1 1721:1 2641:1 #
-0.016228579659709069 12:2 80:2 88:1 101:1 664:2 758:1 985:1 #
-0.0030422356973522236 12:1 22:1 79:1 80:2 264:2 451:1 477:1 565:1 566:1 567:2 568:1 569:1 570:1 571:1 572:1 573:1 574:1 575:1 #
-0.0025540613871369907 12:1 80:3 98:1 101:2 207:1 316:1 405:2 440:1 664:1 847:1 1169:1 #
-0.00051373767797161126 2:2 12:6 47:1 76:1 80:2 81:1 101:1 128:1 131:1 154:1 162:1 168:1 194:1 203:1 213:1 256:1 264:1 281:1 317:1 377:1 384:1 597:1 631:1 639:1 640:1 699:1 797:1 847:1 848:2 900:1 906:1 1055:1 1059:1 1132:1 1269:1 1546:1 1654:1 1723:1 1724:1 1725:1 1726:1 1727:1 1728:1 1729:1 1730:1 1731:2 1732:1 1733:1 1734:1 1735:1 1736:1 1737:2 1738:1 1739:1 1740:1 #
-0.0010846141625473489 2:1 8:1 12:1 46:1 80:3 82:1 106:1 112:1 133:1 168:1 204:1 225:1 240:1 257:1 264:1 272:1 320:1 346:3 351:2 376:1 396:1 460:1 554:1 616:1 692:1 694:1 735:2 749:1 976:1 1212:1 1225:2 1229:1 1251:2 1546:3 1583:1 1634:1 1667:1 1679:2 1804:1 1918:2 2023:1 2029:1 2194:2 2195:2 2196:1 2197:1 2198:1 2199:2 2200:1 2201:1 2202:1 2203:1 2204:1 2205:1 2206:1 #
-0.00053144131877296062 12:2 23:1 36:1 79:1 80:3 103:2 116:1 119:1 133:2 145:1 207:1 223:1 266:1 346:1 375:1 441:1 754:1 757:1 937:1 980:1 1234:1 1245:1 1267:1 1414:1 1433:2 1564:1 2010:1 2011:2 2012:1 2013:1 2014:2 2015:2 2016:1 2017:1 2018:1 2019:1 #
-0.0021393108034422062 12:1 36:1 79:1 82:1 88:1 107:1 171:1 180:1 264:3 346:1 347:1 357:1 360:3 361:1 363:1 387:1 407:1 506:1 519:1 802:1 886:1 931:1 933:2 1318:1 1459:1 1460:1 1461:1 1462:1 1463:1 #
-0.0034263071643576312 2:1 51:1 94:1 103:2 261:1 264:3 1010:1 1011:1 1012:1 1013:1 1014:1 1015:1 1016:1 1017:1 1018:1 #
-0.015552004126019724 2:1 23:1 80:1 317:1 664:1 828:1 #
-0.003935105475278926 7:1 12:2 41:1 80:1 116:2 200:1 214:1 240:1 283:1 361:1 618:1 664:1 861:1 972:1 974:1 1082:1 8060:1 #
-0.0013172625300899936 7:1 25:1 80:2 98:1 171:1 264:1 268:1 269:1 305:1 320:1 367:1 411:1 418:1 447:1 451:1 1178:1 1310:1 1413:1 2141:1 2306:1 2307:1 #
-0.00098252184971888193 7:1 12:1 25:1 80:2 95:1 116:1 181:1 225:1 234:1 274:1 350:3 361:1 396:1 407:1 416:1 451:1 664:1 861:1 998:1 1045:1 1119:1 1502:1 3838:1 #
-0.00092911716475036692 12:2 13:1 35:1 36:1 80:3 154:1 165:1 181:1 240:1 242:1 270:1 272:1 285:1 290:1 405:1 427:2 537:1 539:1 916:1 938:2 943:1 1145:1 1146:1 1147:1 1148:1 1149:4 1150:1 #
-0.00304205508389294 12:1 80:1 98:3 102:1 133:2 608:1 650:1 749:1 989:1 1103:1 1114:1 1115:1 1116:1 1117:1 #
-0.0036758749818603898 35:1 36:1 69:1 87:1 106:2 223:1 264:1 309:1 407:1 886:1 1054:1 1269:1 1318:1 1396:1 1571:1 1650:1 1651:1 1652:1 1653:1 1654:1 1655:1 1656:1 1657:1 #
-0.00017249392560635547 2:4 12:1 36:2 46:1 55:1 69:1 73:1 87:3 98:1 122:2 128:3 132:1 133:1 135:3 168:1 172:1 193:1 200:1 204:1 370:1 373:1 383:1 429:1 554:1 605:1 762:1 804:1 1019:1 1081:1 1267:1 1515:2 1754:1 2189:1 2190:1 2191:1 2192:1 2193:1 #
-0.00092564529739538166 8:1 14:2 36:1 95:2 106:1 117:1 131:2 133:1 172:1 173:1 174:1 320:1 608:1 739:1 1037:1 1434:1 2468:1 2660:1 2661:1 2662:1 2663:1 2664:1 #
-0.0017836468432589545 139:1 204:1 264:1 458:1 922:1 #
-0.00016131592417162896 12:1 46:1 80:2 101:2 150:1 155:1 264:2 405:1 618:1 630:1 847:1 1418:1 1865:1 2111:1 2119:1 2120:1 #
-0.0040626033497092821 12:1 66:1 82:1 98:1 133:1 212:1 264:1 361:1 631:1 941:1 1771:1 #
-5.8875059901319481e-005 8:1 12:1 66:2 73:1 106:1 131:1 168:1 172:2 225:1 272:2 274:1 295:2 326:3 459:1 522:1 549:1 563:1 689:2 1055:1 1098:1 1452:1 1612:1 1613:1 1614:1 1615:1 1616:1 1617:1 1618:1 1619:1 #
-0.00042555020410903736 36:1 128:1 133:1 264:1 373:1 427:1 672:1 1457:1 1458:1 #
-0.00041212055975794397 2:2 12:2 13:2 36:1 50:1 73:1 74:2 80:3 81:1 87:1 94:1 96:1 98:2 101:2 102:5 107:1 108:1 207:1 315:1 350:1 351:1 407:1 440:1 458:1 481:1 634:1 645:1 649:1 650:4 662:2 663:3 664:2 665:2 666:1 667:1 668:1 669:1 670:2 671:1 672:1 673:1 674:1 675:1 676:2 677:1 678:1 679:1 680:1 681:1 682:1 683:1 #
-0.00056503270780057578 7:1 12:1 75:1 128:1 168:1 175:1 311:1 320:1 553:1 554:2 555:1 556:1 557:2 558:1 559:1 560:1 561:1 562:1 563:1 564:1 #
-0.00085090682744061257 12:1 36:1 47:1 80:1 664:1 713:1 1060:1 1061:1 1823:1 2649:1 2650:1 #
-0.00065856738923855804 7:1 80:1 184:1 205:1 215:1 240:1 277:1 #
-0.00020744740272187032 12:2 80:1 117:1 172:1 197:1 240:1 277:1 284:1 373:1 396:1 440:1 879:1 989:1 1072:2 1229:1 1721:1 1868:1 1919:1 2486:1 2487:1 2488:1 2489:1 2490:1 #
-0.00016066558842640737 7:1 12:2 58:1 80:2 97:1 133:1 202:1 225:1 231:1 232:1 264:1 462:1 484:1 520:1 1306:1 1433:1 1714:1 2612:1 2613:1 2614:1 2615:2 2616:1 #
-4.9131277449227656e-005 2:1 58:1 80:1 107:1 168:1 202:1 225:1 277:1 630:1 834:1 847:1 848:1 849:1 850:1 851:1 852:1 853:1 #
