SVM-light Version V6.02
0 # kernel type
3 # kernel parameter -d 
1 # kernel parameter -g 
1 # kernel parameter -s 
1 # kernel parameter -r 
empty# kernel parameter -u 
2214 # highest feature index 
207 # number of training documents 
190 # number of support vectors plus 1 
0.93048607 # threshold b, each following line is a SV (starting with alpha*y)
-0.029440931594969629 5:2 11:1 94:1 127:1 1271:1 1272:1 1273:1 1274:1 1275:1 1276:1 1277:1 #
-0.0033206591183280688 38:1 68:1 168:1 198:1 201:1 343:1 666:1 1018:1 1067:1 1273:1 1278:1 1279:1 1280:2 1281:2 1282:1 1283:1 #
-0.043169167822804604 4:1 5:1 81:1 292:1 705:1 993:1 1934:1 2083:1 2084:1 #
-0.021695932297228784 4:1 5:2 7:1 30:1 46:2 48:1 199:1 263:1 446:1 572:1 1306:1 1307:1 1308:1 1309:1 1310:1 1311:1 1312:1 #
-0.03981495580503893 5:4 38:1 63:1 127:1 477:1 584:1 816:1 1109:1 1273:1 1282:1 1313:1 1314:1 1315:1 1316:1 1317:1 1318:1 1319:1 1320:1 1321:1 1322:1 1323:1 1324:1 1325:1 1326:1 #
0.060279091017991199 1244:1 #
0.060279091017991199 11:1 59:1 201:1 1245:1 1269:1 1270:1 #
0.060279091017991199 397:1 437:1 1292:1 1293:1 1294:1 #
0.060279091017991199 5:2 81:1 274:1 689:1 811:1 1295:1 1296:1 1297:1 #
0.060279091017991199 101:1 194:1 289:1 414:1 538:1 672:1 688:1 1298:1 1299:1 #
-0.020528057951163782 10:1 99:1 274:1 350:1 932:1 1659:1 1660:1 1661:1 #
-0.02225891034944277 642:1 643:1 843:1 1297:1 1335:1 1846:1 #
-0.010907999179455671 140:1 142:1 245:1 310:2 325:2 327:2 414:2 618:2 870:1 977:1 1040:1 1211:1 1375:2 1376:1 1377:1 1378:1 1379:1 1380:1 1381:1 1382:1 1383:1 1384:1 1385:1 1386:1 1387:1 #
-0.060279091017991199 11:1 101:1 443:1 618:1 661:1 1303:1 1421:1 1422:1 #
-0.060279091017991199 55:2 101:1 157:1 335:1 486:1 2148:1 2149:1 2152:1 2160:2 #
0.035345595242128547 4:2 5:5 30:2 52:1 63:2 71:1 125:1 249:1 345:1 425:1 569:1 740:1 981:1 1271:1 1273:2 1282:1 1283:1 1303:1 1308:2 1548:1 1553:1 1690:1 1691:1 1692:1 1693:1 1694:1 1695:1 1696:1 1697:1 1698:1 1699:1 #
0.049444193066022657 5:7 7:1 26:1 55:2 81:2 155:1 297:1 326:1 347:1 950:1 1105:2 1109:1 1271:1 1303:1 1307:1 1653:1 1654:1 1655:1 1656:1 #
0.033523956169344893 4:1 5:4 31:1 59:3 63:1 71:1 113:2 116:1 141:1 157:1 168:1 182:1 198:1 242:1 326:1 335:1 393:1 430:1 485:1 547:2 618:1 706:2 950:1 1090:2 1154:1 1303:4 1307:1 1324:1 1390:1 1435:2 1455:1 1456:1 1457:1 1458:1 1459:1 1460:1 1461:1 1462:1 1463:1 1464:1 1465:1 1466:1 1467:1 1468:1 1469:1 1470:1 1471:1 1472:1 1473:1 1474:1 #
0.060279091017991199 5:3 49:1 59:1 63:1 68:1 127:1 249:1 275:1 345:1 393:1 618:1 829:2 1090:1 1169:1 1243:1 1271:1 1273:1 1282:1 1303:2 1308:1 1423:1 1424:1 1654:1 1742:1 1746:1 1828:1 1829:1 1830:2 1831:1 1832:1 #
0.020449540716278337 5:3 10:1 30:1 46:1 60:1 64:2 101:1 144:1 198:1 238:1 294:1 309:1 310:1 318:1 335:1 393:1 498:3 572:1 584:1 619:1 638:1 687:1 829:1 881:1 1039:1 1200:1 1269:2 1307:2 1399:1 1424:1 1662:1 1830:2 1960:1 1961:1 1962:1 1963:1 1964:1 1965:1 1966:1 1967:1 1968:1 1969:1 1970:2 1971:1 1972:1 1973:1 1974:1 1975:1 1976:1 1977:1 #
-0.055999916851958792 5:4 55:1 113:1 223:1 249:1 334:1 393:1 534:1 647:1 649:1 950:2 1090:1 1245:1 1263:1 1269:1 1271:1 1303:2 1423:1 1424:1 1830:1 1846:1 1982:1 1983:1 1984:1 1985:1 1986:1 1987:1 1988:1 1989:1 #
-0.038322926945534908 5:5 81:1 117:1 194:1 210:2 230:1 275:1 335:1 391:1 498:1 549:1 647:1 689:1 705:1 721:1 742:2 841:1 1273:1 1282:1 1303:1 1313:1 2028:1 2029:1 2030:1 2031:1 2032:1 #
-0.020376998697233886 5:4 59:2 81:1 345:1 355:1 377:1 547:2 711:1 1095:1 1313:1 1413:2 1443:1 1480:1 1531:1 1532:1 1533:2 1534:2 1535:1 1536:1 1537:1 1538:1 #
-0.036398952191180181 4:1 5:5 11:2 48:1 117:1 156:1 309:1 335:1 547:1 553:1 1303:1 1363:1 1467:1 1578:1 1746:1 1949:1 1950:1 1951:1 1952:1 1953:1 1954:1 1955:1 #
-0.0064598718874370013 5:4 10:1 55:1 350:1 364:1 406:1 477:1 554:1 556:1 721:1 762:1 1303:1 1424:1 1501:1 1549:2 1691:1 1735:2 1746:1 1810:1 1811:1 1812:1 1813:1 1814:1 1815:1 1816:1 1817:1 1818:1 1819:1 1820:1 1821:1 1822:1 1823:1 1824:1 1825:1 1826:1 1827:1 #
0.060279091017991199 46:1 1171:1 1336:1 1337:1 1338:1 #
0.060279091017991199 75:1 113:1 168:1 397:1 412:1 572:1 1269:1 1281:1 1410:1 1571:2 1572:1 #
0.060279091017991199 299:1 304:1 458:1 542:2 558:1 659:2 670:1 1090:1 1225:1 1324:1 1422:1 1720:1 2148:1 2149:1 2150:1 2151:1 2152:1 #
0.060279091017991199 354:1 443:1 1370:1 #
0.060279091017991199 30:1 558:1 618:1 661:1 1225:1 2025:1 #
-0.060279091017991199 63:1 125:1 706:1 1105:1 1303:1 1700:1 1701:1 1702:1 1703:1 #
-0.060279091017991199 116:1 221:1 397:1 458:1 1307:1 1308:1 1590:1 2023:1 #
-0.060279091017991199 59:1 64:1 618:1 1307:1 1308:1 1388:1 #
-0.044919380570008167 64:1 443:1 1097:1 1567:1 #
-0.037867285858656952 64:1 413:1 2162:1 2163:1 #
0.046387130420222106 5:4 15:1 25:1 122:1 144:1 236:2 238:1 309:1 326:1 547:1 577:1 702:1 716:1 724:1 747:1 1093:1 1113:1 1307:1 1331:1 1775:1 1914:1 1915:1 1916:1 1917:1 1918:1 1919:1 1920:1 1921:1 1922:1 #
0.034540242345348006 5:3 30:1 59:1 62:1 68:1 78:1 99:1 127:2 188:1 238:1 242:1 275:1 392:1 533:1 790:1 814:1 892:1 913:1 942:1 1162:1 1307:1 1375:1 1522:1 1555:1 1651:1 1746:1 2037:1 2181:1 2182:1 2183:1 2184:1 2185:1 2186:1 2187:1 2188:1 2189:1 2190:1 2191:1 2192:1 2193:1 2194:1 2195:1 #
0.060279091017991199 4:1 5:1 11:2 55:1 59:3 68:1 101:1 112:1 117:3 210:1 213:1 547:1 742:1 1047:1 1109:2 1269:1 1273:3 1282:1 1307:1 1308:2 1313:1 1341:1 1549:1 1833:1 1834:1 1835:1 1836:1 1837:1 1838:1 1839:1 #
-0.013454955396295694 5:4 55:2 59:1 117:2 122:1 128:1 168:2 272:1 289:1 372:1 385:1 397:1 424:1 470:1 798:1 1158:1 1168:1 1269:1 1288:1 1289:1 1424:1 1442:1 1598:1 1599:1 1600:2 1601:1 1602:1 1603:1 1604:1 1605:1 1606:1 1607:1 1608:1 1609:1 1610:1 1611:1 1612:1 1613:1 1614:1 1615:1 1616:1 1617:1 1618:1 1619:1 1620:1 1621:1 1622:1 1623:1 1624:1 1625:1 1626:1 1627:1 1628:1 1629:1 1630:1 1631:1 #
0.00032693630093623822 5:1 48:1 148:1 202:1 227:1 397:8 414:1 439:1 571:1 1303:1 1306:1 1307:7 1308:4 1544:8 1607:1 1608:1 1875:2 1876:8 1877:1 1878:1 1879:1 1880:1 1881:1 #
-0.033149363468887499 5:4 59:1 71:1 97:1 119:1 127:1 249:1 313:1 552:1 793:3 941:1 1273:1 1282:1 1307:1 1308:1 1519:1 1520:1 1941:1 1942:1 1943:1 1944:1 #
-0.0097287039309234755 5:1 59:5 130:1 347:1 443:1 547:3 879:2 970:1 1106:3 1516:1 1542:1 1582:1 1640:1 1671:3 1925:4 1926:1 1927:2 1928:2 1929:2 1930:1 1931:1 #
0.060279091017991199 647:1 1313:1 1591:1 1716:1 1717:1 #
0.060279091017991199 201:1 1313:1 #
0.060279091017991199 125:1 130:1 350:1 1181:1 1746:1 1767:1 #
0.060279091017991199 130:1 713:1 #
0.060279091017991199 26:1 432:1 1313:1 1741:1 #
-0.060279091017991199 30:1 326:1 477:1 1331:1 2053:1 #
-0.035700952318159979 63:1 99:1 715:1 904:1 1108:1 1549:2 1704:1 #
-0.026229756470118 30:1 242:1 253:1 642:1 643:1 1036:1 2015:1 2016:1 2017:1 2018:1 #
-0.051425843311672569 68:1 321:1 707:1 1307:1 2108:1 2109:1 2110:1 2111:1 2112:1 #
-0.039448674144664665 69:1 210:1 438:1 1109:1 1198:1 1410:1 2196:1 2197:1 2198:1 #
0.060279091017991199 5:3 63:1 201:2 311:1 419:1 490:1 573:1 1054:1 1101:1 1424:1 2060:1 2061:2 #
0.060279091017991199 5:2 7:1 130:1 198:1 261:1 364:1 500:1 629:1 757:1 870:1 950:1 1495:1 1496:1 1497:1 1498:1 #
-0.041031546243334757 5:4 113:2 201:1 210:1 232:1 326:1 343:1 460:1 673:1 706:1 753:1 957:1 981:1 1078:1 1307:1 1308:2 1410:2 1414:1 1415:1 1416:1 1417:1 1418:1 1419:1 1420:1 #
-0.014260747503546091 5:2 63:1 71:1 101:1 117:1 318:1 572:1 852:1 911:1 950:1 957:1 1105:1 1241:2 1258:1 1271:1 1273:1 1275:1 1276:1 1282:1 1298:1 1303:3 1313:1 1429:1 1430:1 1431:1 1432:1 1433:1 1434:1 1435:2 1436:1 1437:1 1438:1 1439:1 1440:1 1441:1 1442:1 1443:1 1444:1 1445:1 #
-0.017804143034358316 5:4 30:1 48:1 49:1 63:1 71:1 127:1 273:1 311:1 393:1 422:1 610:1 793:1 817:1 852:1 871:1 902:1 1067:1 1307:1 1313:1 1410:1 1817:1 1903:2 1904:2 1905:1 1906:1 1907:1 1908:1 1909:1 1910:1 1911:1 1912:1 1913:1 #
-0.042715419579679725 5:2 63:2 97:1 373:1 392:1 1273:1 1282:1 1307:1 1308:1 1313:3 1539:1 1540:1 #
0.060279091017991199 38:1 55:1 153:1 335:1 345:1 373:1 443:1 486:1 528:1 673:1 1271:1 1297:1 1307:1 1329:1 1330:1 1331:1 1332:1 1333:1 1334:1 1335:1 #
0.060279091017991199 253:1 326:1 816:1 1303:1 1587:1 1588:1 #
0.060279091017991199 30:1 484:1 618:1 2025:1 2199:1 2200:1 2201:1 #
0.060279091017991199 11:1 30:1 55:1 59:1 163:1 334:1 547:1 651:1 761:1 1307:2 1551:1 1552:1 1553:1 1554:1 1555:1 1556:1 1557:1 #
-0.060279091017991199 7:1 201:1 253:1 373:1 1090:1 1541:1 #
-0.060279091017991199 130:1 299:1 500:1 950:1 #
-0.020959968314059274 201:1 253:1 350:1 499:1 1870:1 1871:1 #
-0.060279091017991199 4:1 55:1 442:1 1372:1 1373:1 #
-0.024236146239590198 49:1 213:1 261:1 444:1 1078:1 1303:2 1305:1 1366:1 1843:1 1844:2 1845:1 #
-0.0083991977408704732 210:1 1759:1 1760:1 1761:1 #
0.060279091017991199 5:2 715:1 822:1 1308:1 1313:1 1742:1 #
0.060279091017991199 5:2 52:2 59:1 79:1 454:1 724:1 1273:1 1282:1 1307:1 1308:1 1519:1 1520:1 1521:1 1522:1 1523:1 #
-0.035690931089762151 5:2 30:2 48:1 55:1 59:2 71:1 159:1 165:1 273:1 288:1 291:1 305:1 393:1 397:1 398:1 449:1 569:1 670:1 889:1 989:1 993:1 1052:1 1136:1 1271:1 1502:1 1594:1 1767:1 1884:1 2075:1 2076:1 2077:1 2078:1 2079:1 2080:1 2081:1 2082:1 #
-0.021570626564536885 5:2 13:1 20:1 30:1 38:1 46:2 55:1 148:1 196:1 230:1 271:1 397:1 437:1 477:1 522:1 587:1 618:1 626:1 704:1 884:1 1091:1 1273:1 1282:1 1283:1 1298:1 1307:4 1308:3 1313:1 1672:1 1673:1 1674:1 1675:1 1676:1 1677:1 1678:1 1679:1 1680:1 1681:1 1682:1 1683:1 1684:1 1685:1 1686:1 1687:1 1688:1 1689:1 #
-0.022471828023530267 5:1 24:1 26:1 81:1 119:1 244:1 249:1 486:1 497:1 619:1 884:1 1039:1 1113:1 1307:1 1990:1 2119:1 2120:1 2121:1 2122:1 #
-0.060279091017991199 5:2 242:1 502:1 558:1 901:1 1225:1 2178:1 #
-0.0090584951658375674 5:2 127:1 244:1 357:1 422:1 463:1 533:1 981:1 1248:1 1308:2 1577:1 1608:2 1717:1 1894:1 1895:1 1896:1 1897:1 1898:1 1899:1 1900:1 1901:1 1902:1 #
0.060279091017991199 71:1 116:1 484:1 695:1 1303:1 1363:1 1632:1 1633:1 1634:1 1635:1 #
-0.060279091017991199 1699:1 #
-0.012357306428845007 42:1 50:2 816:1 864:1 1243:1 1266:1 1372:1 1401:1 1402:1 1403:1 1404:1 1405:1 1406:1 1407:1 1408:1 #
-0.060279091017991199 4:1 1869:1 #
-0.023856940433077737 59:1 547:1 742:1 1516:1 1710:1 1887:1 1888:1 #
0.046689507497379386 5:3 30:2 55:2 130:1 210:1 326:1 568:1 569:1 981:1 1047:1 1078:1 1495:1 1521:1 1522:1 1542:1 2037:1 2067:1 2085:1 2086:1 2087:1 #
0.060279091017991199 5:2 413:1 495:1 1313:1 1517:1 1546:1 1547:1 #
0.060279091017991199 5:2 8:1 59:1 241:1 300:1 443:1 1086:1 2153:1 2154:1 2155:1 2156:1 2157:1 #
-0.060279091017991199 5:1 26:1 59:1 140:1 236:1 326:1 413:1 547:1 1165:1 1170:1 1313:1 1708:1 #
-0.012127179418593223 5:1 18:1 59:1 60:2 62:1 81:1 201:1 223:1 275:1 276:1 282:1 311:1 419:1 449:1 547:1 616:1 705:1 820:1 960:1 1171:1 1193:1 1245:1 1271:1 1313:1 1347:1 1475:1 1476:1 1477:1 1478:1 1479:1 1480:1 1481:1 1482:1 1483:1 1484:1 1485:1 1486:1 1487:1 #
-0.046658898250133668 5:1 30:1 67:1 113:1 198:1 561:1 1269:1 1423:1 1424:1 1425:1 1426:1 1427:1 1428:1 #
-0.036703151423892633 5:2 75:1 533:1 918:1 941:1 1303:1 1454:1 1500:1 1742:1 1893:1 #
-0.01348211858928508 5:2 71:1 275:1 282:1 335:1 564:1 1097:1 1105:1 1269:1 1281:1 1282:1 1423:1 1424:1 1641:1 1642:2 1643:1 1644:1 1645:1 1646:1 1647:1 1648:1 1649:1 #
0.060279091017991199 558:1 864:1 1225:1 2175:1 2176:1 2177:1 #
0.060279091017991199 791:1 981:1 1078:1 1727:1 1728:1 1729:1 #
0.060279091017991199 68:1 375:1 1303:1 #
0.060279091017991199 5:1 117:1 128:1 237:1 260:1 299:1 486:1 549:1 1517:1 1518:1 #
-0.0049189106615370242 1352:1 1518:1 1566:1 1567:1 1568:1 #
-0.051744689957251663 1307:2 2094:1 2095:1 2096:1 2097:1 #
-0.03897183833020168 576:1 864:1 2170:1 #
0.060279091017991199 5:2 960:1 1300:1 1301:1 1302:1 1303:1 1304:1 1305:1 #
0.060279091017991199 4:1 5:2 116:1 198:1 273:1 320:1 816:1 950:2 1039:1 1396:1 1495:1 1593:1 1749:1 1775:1 1776:1 1777:1 1778:1 1779:1 1780:1 #
0.060279091017991199 5:1 30:1 116:1 160:1 198:1 201:1 244:1 326:1 373:1 571:1 638:1 768:1 772:1 807:1 941:1 1229:1 1307:1 1443:1 1587:1 2019:1 2020:1 #
-0.060279091017991199 4:1 5:1 68:1 91:1 320:1 642:1 839:1 928:1 1269:1 1303:3 1307:1 1518:1 1568:1 1945:1 1946:1 1947:1 1948:1 #
-0.013830154903011524 5:1 198:1 218:1 446:1 599:1 638:2 649:2 724:1 892:1 924:1 928:2 1109:1 1280:1 1303:2 1307:1 1614:1 1705:1 1706:1 1707:2 #
-0.040839971299701579 5:2 55:1 199:1 724:1 1792:1 1793:1 1794:1 1795:1 1796:1 1797:1 1798:1 #
0.060279091017991199 68:1 81:1 128:1 210:1 221:1 318:1 392:1 412:1 439:1 782:1 1269:1 1273:1 1282:1 1331:1 1424:1 1457:1 1594:1 1595:1 1596:1 1597:1 #
0.060279091017991199 1269:1 1307:1 #
0.060279091017991199 18:1 55:1 59:1 127:1 213:1 236:1 253:1 310:1 507:1 638:1 1303:1 1349:1 2143:1 2171:1 2172:1 2173:1 #
0.060279091017991199 5:1 153:1 236:1 253:1 413:1 901:1 1409:2 1410:1 1411:1 1412:1 1413:1 #
-0.010084286434007985 59:1 122:1 136:1 556:1 568:1 715:1 721:2 747:1 807:1 816:1 1565:1 1636:1 1736:1 2062:1 2063:1 2064:1 2065:1 2066:1 2067:1 2068:1 2069:1 2070:1 2071:1 2072:1 2073:1 #
-0.039902513597732607 50:1 59:1 128:1 1391:1 1392:1 1393:1 1394:1 #
0.060279091017991199 5:1 46:1 50:1 55:2 144:1 397:1 464:1 484:1 1271:1 1303:1 1307:1 1308:1 1730:1 1731:2 1732:1 1733:2 1734:1 1735:1 1736:1 #
0.060279091017991199 4:1 5:1 101:1 197:1 226:1 263:1 405:1 538:1 558:1 649:1 916:1 1225:1 1307:2 1410:1 2158:1 2159:1 2160:1 2161:1 #
-0.050658597384519069 5:1 244:1 300:2 301:1 397:1 564:1 572:1 1269:1 1307:1 1413:1 1602:1 1657:1 1658:1 #
-0.022765473045792149 5:1 30:1 48:1 59:1 63:1 117:3 148:1 186:3 263:1 348:2 406:1 752:1 1105:1 1271:2 1283:1 1307:2 1501:2 1697:1 1699:1 1810:1 1814:1 1825:1 2050:1 2051:2 2052:1 #
0.060279091017991199 5:1 642:1 1720:1 1846:1 1847:1 #
0.060279091017991199 1109:1 1374:1 #
0.060279091017991199 5:1 186:1 540:1 553:1 816:1 1031:1 1338:1 1410:1 1518:1 1549:1 1851:1 1852:1 1853:1 1854:1 1855:1 1856:1 #
-0.049771825379860427 4:1 5:1 24:1 63:1 168:1 299:1 345:1 816:1 892:1 927:1 1149:1 1772:1 1773:1 1774:1 #
-0.05973320728507589 5:1 651:1 1232:1 1338:1 1449:1 1450:1 1451:1 #
-0.026307950347263177 5:1 71:1 144:1 153:1 180:1 273:1 335:2 347:1 649:1 817:1 1071:1 1273:1 1282:1 1431:2 1495:1 1554:1 2101:1 2102:1 2103:1 2104:1 2105:1 2106:1 2107:1 #
-0.040423268735366225 5:1 81:1 127:1 198:2 571:1 924:1 1363:1 1448:1 1718:1 1719:1 #
0.060279091017991199 5:1 35:1 1307:1 1313:1 1860:1 2137:1 2138:1 2139:1 #
0.058613248999796232 5:1 35:1 49:1 81:1 99:1 210:1 242:1 296:1 443:1 495:1 638:1 839:1 890:2 1079:1 1307:2 1317:1 1330:1 1785:1 1978:1 1979:1 1980:1 1981:1 #
0.05780581291634581 5:1 7:1 30:1 46:1 211:1 230:1 294:1 322:2 384:1 397:1 450:1 451:1 477:1 534:1 752:1 902:1 1003:1 1090:1 1213:1 1338:1 1410:1 1577:1 1781:1 1784:1 1785:1 1786:1 1787:1 1788:1 1789:1 1790:1 1791:1 #
0.060279091017991199 5:1 165:1 283:1 1269:1 1303:1 #
-0.016305509988882003 5:3 11:2 46:1 48:2 49:1 55:1 101:1 210:3 325:1 397:1 641:1 647:1 821:1 844:1 1078:1 1109:1 1307:1 1514:1 1552:1 1581:1 1742:1 1857:1 1858:1 1859:1 1860:1 1861:1 1862:1 1863:1 1864:2 1865:1 1866:1 1867:1 1868:1 #
-0.050225495267291843 5:1 128:1 201:1 263:1 372:1 439:1 1003:1 1307:1 1410:1 1636:1 1637:1 1638:1 1639:1 1640:1 #
-0.034360397181383909 405:1 409:1 424:1 807:2 1054:1 1307:1 1650:1 1651:1 1652:1 #
-0.026144241754039611 648:1 661:1 1410:1 1720:1 1721:1 1722:1 1723:1 1724:1 1725:1 1726:1 #
0.060279091017991199 5:1 71:1 81:1 816:1 833:1 1308:1 #
0.04309111787933214 5:2 59:1 63:2 64:1 97:1 144:1 260:1 340:1 1105:4 1109:1 1181:1 1325:1 1326:1 1553:2 1666:2 1667:1 1668:1 1669:1 1670:1 1671:1 #
0.060279091017991199 5:1 81:1 413:1 #
-0.025576627459085687 5:2 81:1 101:1 534:1 642:1 1036:1 1158:1 1271:1 1303:1 1396:1 1397:1 1398:1 1399:1 1400:1 #
-0.060279091017991199 5:2 81:1 399:1 1078:1 1313:1 1327:1 1328:1 #
-0.020542492305848294 5:1 18:1 81:1 130:1 165:2 326:1 360:1 437:1 477:2 553:1 635:1 785:1 936:1 1307:1 1313:1 1526:3 1851:1 2054:1 #
0.060279091017991199 120:1 335:1 558:1 704:1 952:1 1086:1 1225:1 2174:1 #
-0.034467114397324985 422:1 443:1 768:1 781:1 801:1 1097:1 #
-0.039409894982286142 14:1 46:2 59:1 101:1 202:1 241:1 #
-0.016565797584839531 55:1 127:1 781:1 2110:1 #
0.060279091017991199 4:1 5:1 59:1 81:1 443:2 638:1 1298:1 1313:1 1514:1 2012:1 2013:1 2014:1 #
0.060279091017991199 5:1 128:1 260:1 325:1 742:1 764:1 1341:1 1517:1 1544:1 1709:1 1710:1 #
-0.019509028248098484 5:2 14:1 43:1 55:1 59:1 63:1 99:1 215:1 309:1 489:1 499:1 533:1 547:2 638:1 782:1 932:1 1273:1 1307:1 1313:1 1620:1 1932:1 1933:1 1934:1 1935:1 1936:1 1937:1 1938:1 1939:1 1940:1 #
-0.034934672581962298 5:1 55:1 58:1 59:1 81:1 170:1 201:1 263:1 414:2 421:1 534:1 566:1 1252:1 1676:1 2021:1 2022:1 #
-0.031957816274924888 5:2 350:1 901:1 1307:1 1308:1 1743:2 1744:1 1745:1 1746:1 1747:1 #
-0.060279091017991199 5:1 59:1 572:1 1308:1 1556:1 #
-0.060089468643585331 5:1 71:1 161:1 619:1 1307:1 2098:1 2099:1 2100:1 #
0.060279091017991199 63:1 68:1 274:1 397:1 458:1 1457:1 1714:1 1842:1 #
-0.023258966571310109 325:1 406:1 443:1 730:1 1097:1 1711:1 1712:1 #
-0.034557168609065075 458:1 1872:1 1873:1 #
-0.049964849546004622 71:1 98:1 144:1 253:1 358:1 729:1 1243:1 1313:1 1389:1 1390:1 #
0.053827285538565924 4:2 71:2 300:1 334:1 410:1 500:1 558:1 1225:1 1263:1 1307:2 1691:1 2113:1 2114:1 2115:1 2116:1 2117:1 2118:1 #
0.040035847283403481 5:1 30:1 59:2 81:1 127:1 166:1 236:1 249:1 250:1 543:1 558:1 793:1 1079:1 1225:1 2152:1 2165:1 2166:1 2167:1 2168:1 2169:1 #
0.060279091017991199 63:1 125:1 268:1 294:2 348:1 387:1 395:1 1308:1 1410:1 1542:1 1543:1 1544:1 1545:1 #
-0.035414696825042551 127:1 1341:1 1558:1 1559:1 1560:1 #
0.050555387515248809 5:1 71:1 269:1 305:1 450:1 558:1 618:1 1090:1 1225:1 2131:2 2132:1 2133:1 2134:1 2135:1 2136:1 #
-0.057365136156894286 7:1 59:1 155:1 198:1 726:1 #
-0.04308945464440514 73:1 310:1 642:1 1691:1 #
-0.0026666499066540688 59:1 486:1 547:1 549:1 1661:1 1737:1 1738:1 1739:1 1740:1 #
-0.041948673656468732 299:1 649:1 950:1 1410:1 1809:1 #
-0.060279091017991199 1371:1 #
-0.0086908182536791639 784:1 888:1 2209:1 2210:1 2211:1 2212:1 2213:1 2214:1 #
-0.032548235060010131 1410:1 1485:1 1600:1 1874:1 #
0.036508425023807432 5:1 63:1 73:1 116:1 249:1 321:1 335:1 558:1 1225:2 2140:1 2141:1 2142:1 2143:1 2144:1 2145:1 2146:1 2147:1 #
-0.036789205081644016 59:1 294:1 1273:1 1282:1 1283:1 1564:1 1848:1 1849:1 1850:1 #
-0.017409720932932915 5:1 11:1 46:1 59:1 63:1 64:1 95:1 127:1 198:1 291:1 791:1 928:1 993:1 1090:1 1269:1 1298:1 1303:1 1323:1 1324:1 1331:1 1424:1 1449:1 1707:1 1746:1 2088:1 2089:2 2090:1 2091:1 #
-0.019393400954382755 4:1 5:1 63:2 68:1 113:1 165:1 249:1 326:1 334:1 449:1 452:2 477:1 486:1 1273:2 1282:1 1283:1 1307:1 1413:1 1814:1 1836:1 1882:1 1883:1 1884:1 #
-0.056548092150645136 5:1 30:1 59:1 350:1 547:1 951:1 1644:1 1885:1 1886:1 #
-0.025150072353073292 5:1 59:1 79:1 309:1 1273:1 1282:1 1524:1 1552:1 1617:1 1994:1 1995:1 1996:1 1997:1 1998:1 #
-0.019692400579790815 5:1 82:1 136:1 210:1 232:1 255:1 381:1 458:1 543:1 841:1 1109:1 1169:1 1515:1 1516:1 #
-0.014803522977839977 5:2 101:1 107:1 213:1 232:1 244:1 486:1 569:1 647:1 786:2 965:1 1308:3 1548:1 1549:2 1550:1 #
-0.029183927041165077 5:3 75:1 127:1 148:1 168:1 335:1 398:1 440:1 568:1 1039:2 1281:1 1307:1 1395:1 #
-0.025284658104175871 5:1 128:1 486:1 892:1 1091:1 1742:1 1768:1 1769:1 1770:1 1771:1 #
-0.028217146682996144 5:1 63:1 81:1 97:1 1041:1 1303:1 1308:1 1313:1 1762:1 1763:1 1764:1 1765:1 #
-0.016231792612544343 5:2 59:1 63:1 154:1 504:1 506:1 661:1 721:1 727:1 1671:1 1686:1 1922:1 2179:1 2180:1 #
-0.0062628790254084798 5:1 30:1 38:1 48:1 59:1 81:1 168:1 221:1 249:1 288:1 296:1 398:1 422:1 504:1 549:1 661:1 745:1 1111:1 1136:1 1281:1 1642:1 1698:1 1876:1 1999:1 2000:1 2001:1 2002:1 2003:1 2004:1 2005:1 2006:1 2007:1 2008:1 2009:1 2010:1 2011:1 #
-0.014461498425839934 5:1 95:1 223:1 229:1 301:1 464:1 1307:1 1527:1 1528:1 1529:1 1530:1 #
-0.043502453273126067 5:1 7:1 198:1 1811:1 2092:1 #
-0.0056176776996307437 5:7 48:1 148:1 168:2 210:1 291:1 443:1 446:1 458:1 612:1 647:1 1097:1 1279:1 1280:1 1281:1 1307:2 1308:1 1573:1 1574:1 1575:1 1576:1 1577:1 1578:2 1579:1 1580:1 1581:1 1582:1 1583:1 1584:1 1585:1 1586:1 #
-0.01287073596137385 94:1 253:1 1569:1 1570:1 #
-0.021033413483769324 5:1 63:1 533:1 1271:1 1303:1 1662:1 1663:1 1664:1 1665:1 #
-0.029214319002836883 5:1 1269:1 1273:1 1282:1 1283:1 1303:1 1423:1 1424:1 1766:1 #
-0.011211012796850554 94:1 1078:1 1328:1 1331:1 1781:1 1782:1 1783:1 #
-0.060279091017991199 5:1 1869:1 #
-0.0012307367433795464 5:2 26:1 58:1 63:1 168:1 210:1 227:1 232:1 260:1 263:2 310:1 537:1 543:1 572:1 587:1 807:1 869:1 973:1 1097:1 1171:1 1269:1 1303:1 1307:1 1347:1 1410:1 1423:1 1424:1 1608:1 1745:1 1749:1 1750:1 1751:1 1752:1 1753:1 1754:1 1755:1 1756:1 1757:1 1758:1 #
-0.025197593222611413 210:1 1748:1 #
-0.0067090693188664105 155:1 199:1 533:1 1090:1 1303:1 1446:1 1447:1 1448:1 #
-0.0039180862621706891 5:1 11:1 30:1 43:1 46:1 59:1 63:1 117:2 128:1 263:3 325:1 696:1 928:1 929:1 950:1 1043:1 1067:1 1271:3 1303:1 1308:1 1499:2 1500:1 1501:1 1502:1 1503:1 1504:1 1505:1 1506:1 #
-0.0021860951814072216 4:1 299:1 547:1 1384:1 1565:1 1706:1 1799:1 1800:1 1801:1 1802:1 1803:1 1804:1 1805:1 1806:1 1807:1 1808:1 #
-0.0026263905700407639 5:2 63:1 98:1 127:1 162:1 210:1 398:2 868:1 1713:1 1714:2 1715:1 #
-0.0066313013446390916 5:1 127:1 148:1 184:1 335:1 1039:1 1307:1 1929:1 2049:1 #
-0.0014869633824230056 48:1 59:1 117:1 121:1 299:1 437:1 547:1 777:1 1109:1 1280:1 1956:1 1957:1 1958:1 1959:1 #
-0.00049751391378269859 5:2 127:1 155:1 165:1 210:1 443:1 721:1 1097:1 1454:1 #
