SVM-light Version V6.02
0 # kernel type
3 # kernel parameter -d 
1 # kernel parameter -g 
1 # kernel parameter -s 
1 # kernel parameter -r 
empty# kernel parameter -u 
8863 # highest feature index 
242 # number of training documents 
20 # number of support vectors plus 1 
-1.0263341 # threshold b, each following line is a SV (starting with alpha*y)
-0.040326884717437575 12:1 58:1 453:1 981:1 1552:1 2887:1 3628:2 7784:1 #
0.00089169061598810134 12:3 129:1 272:1 384:1 387:1 405:1 453:2 554:1 1072:1 1091:1 1281:3 1418:1 1476:1 1829:1 1834:1 2475:1 2770:1 3666:1 3815:1 3823:1 3824:1 3825:1 3826:1 3827:1 3828:1 3829:1 3830:1 3831:1 #
0.00012578321889785945 12:1 154:1 240:1 377:1 453:1 519:1 520:1 1969:1 #
0.0054961258694555641 1:1 12:1 58:1 772:1 909:1 941:1 2887:1 #
0.0024960478155664867 58:1 168:1 172:1 487:1 941:1 1511:1 2887:1 2923:1 3630:1 3631:1 #
0.0044160381104449342 12:1 350:1 423:1 954:1 1887:1 2262:1 3115:1 3628:1 7801:1 7802:1 7803:1 #
0.0018933836644571404 58:1 98:1 121:1 238:1 379:1 451:2 580:1 909:1 2887:2 3018:1 3104:1 3122:1 3123:1 3278:1 3507:1 3508:1 3509:1 #
0.0082014019400480451 12:1 79:1 98:1 3628:1 4278:1 7793:1 7804:1 #
0.0011012284517047594 2:1 12:5 41:2 69:1 73:1 205:1 240:1 247:1 248:1 257:1 284:1 299:1 361:1 554:1 658:1 670:1 980:1 1014:1 1044:1 2071:1 2124:1 2841:1 2887:1 2888:2 2974:2 2975:1 3095:1 3115:2 3145:1 3250:1 3276:1 3435:1 3616:1 3617:1 3618:1 3619:1 3620:1 3621:1 3622:1 3623:1 3624:1 3625:1 3626:1 3627:1 3628:1 #
0.00027139170776002784 12:5 87:1 128:1 240:2 257:1 939:1 1273:1 1822:1 2448:1 2802:1 2827:1 2887:1 3220:1 3221:1 3222:1 3223:1 3224:1 #
0.0011700823597794226 129:1 273:1 596:1 966:2 1324:1 1677:1 4530:1 7784:1 #
0.0030939375297399769 12:1 453:1 3506:1 #
0.0013846478099882671 2:1 12:2 41:1 58:1 61:1 204:1 485:2 776:1 856:1 869:1 1476:1 2241:1 2517:1 2796:1 2887:1 3235:1 3775:1 3776:1 #
0.00013119266592562869 2:1 12:1 58:1 694:1 1443:1 2743:1 2857:1 3214:1 3215:1 3216:1 3217:1 3218:1 3219:1 #
0.0081951376391035148 453:1 #
0.00026118738139411005 1:1 12:12 46:1 172:1 300:1 407:3 427:1 432:1 499:1 692:1 1443:1 1617:1 1960:1 2054:1 2182:1 2471:1 2666:1 2768:1 2770:1 2859:1 2887:1 3139:2 3217:2 3274:1 3295:1 3299:1 3330:1 3417:1 3418:1 3419:1 3420:1 3421:1 3422:1 3423:1 3424:1 3425:1 3426:1 3427:1 3428:1 #
0.00017822159300713046 12:5 58:1 161:1 223:1 255:1 258:1 285:1 320:1 379:2 554:1 562:1 595:1 608:1 764:1 856:1 909:1 969:1 1112:1 1330:1 1477:1 1480:1 1515:1 1617:1 2513:1 2631:1 2703:1 2770:1 2887:1 3101:1 3108:1 3109:1 3110:1 3111:1 3112:2 3113:1 3114:1 3115:1 3116:1 3117:2 3118:2 3119:2 3120:1 3121:1 3122:1 3123:1 #
0.00078916179525082681 1:1 14:1 51:1 61:1 275:1 428:1 2182:1 2655:1 2685:1 2768:1 2887:2 2927:1 3463:1 3547:1 3548:1 3549:1 3550:1 #
0.00023022454892514491 12:1 122:2 129:1 373:1 583:2 720:1 764:1 769:1 909:1 1238:1 1754:1 2382:1 2887:2 3115:1 3727:1 3728:2 3729:1 3730:1 3731:1 #
