SVM-light Version V6.02
0 # kernel type
3 # kernel parameter -d 
1 # kernel parameter -g 
1 # kernel parameter -s 
1 # kernel parameter -r 
empty# kernel parameter -u 
1369 # highest feature index 
29 # number of training documents 
23 # number of support vectors plus 1 
-0.9957387 # threshold b, each following line is a SV (starting with alpha*y)
-0.078247536488049357 5:1 101:1 129:1 130:1 131:2 132:1 133:1 134:1 #
0.00037910435958572237 5:1 59:1 62:1 135:1 136:1 137:1 138:1 139:1 140:1 141:1 142:2 143:1 144:1 145:1 146:1 147:1 148:1 149:1 150:1 151:1 152:1 153:1 154:1 155:1 156:1 157:1 158:1 159:1 160:1 161:1 #
0.0032171187307786083 5:1 165:1 198:1 199:1 200:1 201:1 #
0.0058107861609372549 5:2 71:1 101:1 184:1 185:1 186:2 187:1 188:1 189:1 190:1 191:1 192:1 193:1 194:1 #
0.00053084261623840363 59:1 116:1 156:1 195:1 196:1 197:1 #
0.026521428109374391 4:1 5:1 55:1 131:1 174:1 182:1 207:1 #
0.01415909148423603 5:1 33:1 113:1 131:1 163:1 192:1 202:1 203:1 204:1 205:1 206:1 #
0.0074914990673269804 133:1 212:2 255:1 256:1 257:1 258:1 259:1 260:1 #
0.0058093520455244274 5:1 168:1 215:1 216:1 #
0.0012822959551847563 5:1 151:1 152:1 228:1 229:1 230:1 231:1 232:1 233:1 234:2 235:1 #
0.00031803111048140184 5:1 9:1 176:1 196:1 271:1 371:1 444:1 572:1 722:1 992:1 1090:1 1271:2 1274:1 1353:1 1354:1 1355:1 1356:1 1357:2 1358:1 1359:3 1360:3 1361:1 1362:1 1363:1 1364:1 1365:1 1366:1 1367:1 1368:1 1369:1 #
0.00073818994708524203 5:1 155:1 198:1 283:1 296:1 318:1 319:1 320:1 321:1 322:1 323:1 324:2 325:1 326:1 327:1 328:1 #
0.0018738658503419381 81:1 208:1 #
0.0037477317006838762 217:1 #
0.00093224953989852607 5:1 148:1 194:1 218:1 219:1 220:1 221:1 222:1 223:1 224:1 225:1 226:1 227:1 #
0.00047347728078703548 50:2 236:1 237:1 238:1 239:1 240:1 #
0.00028314116997595756 8:1 40:1 241:1 242:1 243:1 244:1 245:1 246:1 247:1 248:1 249:1 250:1 251:1 252:1 253:1 254:1 #
0.0022651293598076605 7:1 265:1 #
0.00090605174392306427 214:1 284:1 285:1 286:1 287:1 #
0.0012492439002279587 288:1 289:1 290:1 #
0.00020773521838233019 81:1 82:1 86:1 99:1 291:1 292:2 293:1 294:1 #
5.1171137267902586e-005 5:2 71:2 99:1 164:1 212:1 218:1 271:1 294:1 295:1 296:1 297:1 298:1 299:2 300:1 301:1 302:1 303:1 304:1 305:1 306:1 307:1 308:1 309:1 310:1 311:1 312:1 #
