SVM-light Version V6.02
0 # kernel type
3 # kernel parameter -d 
1 # kernel parameter -g 
1 # kernel parameter -s 
1 # kernel parameter -r 
empty# kernel parameter -u 
2208 # highest feature index 
131 # number of training documents 
125 # number of support vectors plus 1 
0.75535619 # threshold b, each following line is a SV (starting with alpha*y)
-0.058669208092389721 81:1 198:1 208:1 260:2 345:1 347:1 367:1 368:1 369:1 370:1 371:1 #
-0.014357215429537891 30:1 70:1 230:1 372:3 373:1 374:1 375:1 376:1 377:1 378:1 #
-0.017361082983318024 5:2 30:1 31:1 71:1 81:1 113:1 122:1 155:1 210:1 232:1 340:1 379:2 380:1 381:1 382:1 383:1 384:1 385:1 386:1 387:1 388:1 389:1 390:1 391:1 392:1 393:1 #
-0.0052303204064027449 97:1 427:1 428:1 429:1 430:1 431:1 432:1 433:1 434:1 435:1 436:1 437:1 438:1 439:1 #
-0.0060825432632686085 4:1 5:2 31:1 97:1 98:1 210:1 230:2 238:2 253:1 321:1 417:3 440:1 441:1 442:1 443:1 444:1 445:1 446:1 447:2 448:1 449:1 450:1 451:1 452:2 453:1 454:1 455:1 456:1 457:1 458:1 459:1 #
0.058669208092389721 5:1 344:1 #
0.023971028968269636 5:1 64:1 70:1 78:1 81:1 97:1 117:1 130:1 144:1 194:1 226:1 345:2 346:1 347:2 348:1 349:1 350:1 351:1 352:1 353:1 #
0.040930452439623483 4:1 5:2 63:1 64:1 184:1 249:1 345:1 347:2 354:1 355:1 356:1 357:1 358:1 359:1 360:1 361:1 362:1 363:1 364:1 365:1 366:1 #
0.058669208092389721 101:1 117:1 243:1 244:1 394:1 395:1 396:1 397:1 398:1 #
0.058669208092389721 2:1 5:4 55:1 59:1 122:1 260:1 358:1 359:1 399:1 400:1 401:1 402:1 403:1 404:1 405:1 406:1 407:1 #
-0.035566308309839673 5:6 7:1 14:1 39:1 55:1 59:1 63:1 117:1 358:2 361:3 363:1 364:1 396:1 400:1 440:1 447:1 469:2 472:1 477:1 534:1 547:1 616:1 623:1 711:1 820:1 892:1 973:1 1076:1 1091:2 1183:1 1184:2 1185:1 1186:2 1187:1 1188:1 1189:1 1190:1 1191:1 1192:1 1193:1 1194:1 1195:1 1196:1 1197:1 1198:1 1199:1 1200:1 1201:1 1202:1 1203:1 1204:1 1205:1 1206:1 1207:1 1208:1 #
-0.03301105607130262 5:7 10:1 33:1 55:4 59:1 144:1 166:1 261:1 318:1 320:1 361:1 406:1 438:1 443:1 477:1 534:2 543:1 606:1 680:1 726:1 735:1 736:1 737:1 738:1 739:4 740:1 741:3 742:1 743:1 744:1 745:2 746:1 747:1 748:1 749:1 750:1 751:1 752:1 753:1 754:1 755:1 756:1 757:1 758:1 759:1 760:1 761:1 762:1 763:1 #
-0.058669208092389721 5:5 11:1 68:1 122:1 148:1 160:1 162:1 347:2 350:1 358:1 379:1 406:1 508:1 661:1 715:1 816:1 828:1 906:1 907:1 908:1 909:1 910:1 911:1 912:2 913:1 914:1 915:1 #
-0.013851616661599519 5:5 26:1 35:1 48:2 59:1 71:1 81:1 86:1 91:1 116:1 117:1 210:1 232:1 244:1 258:1 261:1 322:1 329:1 335:2 371:1 460:1 486:2 496:1 543:1 603:2 604:2 605:1 606:1 607:1 608:1 609:1 610:1 611:1 612:1 613:1 614:1 615:1 616:1 617:1 618:1 619:1 620:1 621:1 622:1 623:1 624:1 625:1 626:1 #
-0.027874663925035709 5:4 26:1 55:1 89:2 97:2 199:1 263:1 345:1 397:1 455:1 477:2 531:1 532:1 533:1 534:1 535:1 536:1 537:1 538:1 539:1 540:1 541:1 542:1 543:1 544:1 545:1 546:1 547:1 548:1 549:1 550:1 551:1 552:1 #
0.058669208092389721 42:1 113:1 163:1 213:1 260:1 361:1 393:1 447:1 500:1 673:2 674:1 675:1 676:1 677:1 678:1 679:1 680:1 #
0.058669208092389721 210:1 627:1 628:1 629:1 630:1 #
0.058669208092389721 68:1 198:1 462:1 1072:1 #
0.058669208092389721 71:1 424:1 466:1 467:1 468:1 469:1 #
0.058669208092389721 389:1 648:1 693:1 #
-0.047774938942470015 63:1 310:1 326:1 345:1 347:1 631:2 632:1 633:1 634:1 635:1 #
-0.058669208092389721 334:1 345:1 667:1 #
-0.058669208092389721 63:1 136:1 345:1 532:1 555:1 587:1 636:1 #
-0.057588323213617676 11:1 354:1 357:1 801:1 1033:1 1034:1 1035:1 1036:1 #
-0.058669208092389721 323:1 588:1 627:1 #
0.0096718656905246756 5:6 31:1 59:3 68:1 78:1 81:1 256:1 260:1 335:1 350:3 381:1 682:1 723:1 748:1 805:2 809:1 810:1 811:1 812:1 813:2 814:1 815:2 816:2 817:2 818:1 819:1 820:2 821:1 822:1 823:1 824:2 825:2 826:1 827:2 #
0.023784142379372826 5:4 47:1 50:1 55:1 57:1 59:1 81:1 113:1 117:1 275:1 322:1 333:1 335:1 347:1 450:1 618:1 666:1 828:1 857:1 858:1 859:1 860:1 861:1 862:1 863:1 864:1 865:1 866:1 867:1 868:1 869:1 870:1 871:1 872:1 #
0.029702526013030851 4:1 5:2 22:1 30:1 55:1 59:1 68:1 86:1 113:1 162:1 232:1 263:1 294:1 325:1 417:1 434:1 451:1 567:1 618:1 633:1 968:1 977:1 1008:1 1009:1 1010:1 1011:1 1012:1 1013:1 1014:1 1015:1 1016:1 1017:1 1018:1 1019:1 1020:1 1021:1 1022:1 1023:1 1024:1 1025:1 1026:1 1027:1 1028:1 1029:1 1030:1 1031:1 1032:1 #
0.047341346456535982 5:2 31:1 127:1 136:1 263:1 361:1 393:1 417:2 447:3 449:1 461:1 479:1 486:1 491:1 497:1 560:1 587:1 671:1 673:2 757:1 930:1 931:1 932:1 933:1 934:1 935:1 #
-0.011048024868721848 5:3 31:1 39:2 48:1 71:1 113:2 310:2 316:2 347:2 394:1 396:1 417:5 420:1 421:1 432:1 449:2 452:1 486:1 516:2 525:1 528:1 553:1 554:1 555:1 556:1 557:1 558:1 559:1 560:1 561:1 562:1 563:1 564:1 565:1 566:1 567:1 568:1 569:1 570:1 571:1 572:1 573:1 574:1 575:1 576:1 577:1 #
-0.013586711892535229 5:3 11:1 46:1 55:1 59:2 60:1 70:1 71:1 110:1 341:1 357:1 389:1 417:1 422:1 447:1 450:1 455:1 482:1 533:1 541:1 652:1 693:1 712:1 723:2 820:3 892:2 928:1 954:1 955:1 956:1 957:1 958:1 959:1 960:1 961:1 962:1 963:1 964:1 965:2 966:1 967:1 968:1 969:1 970:1 971:1 972:1 973:1 974:1 975:1 976:1 977:1 978:1 979:1 980:1 981:1 982:1 #
-0.020055228730598396 5:3 27:1 31:1 39:1 55:1 59:2 63:1 71:1 113:1 116:1 122:1 155:2 275:1 348:1 361:1 383:1 417:2 436:1 471:1 508:1 713:1 723:1 724:2 725:1 726:2 727:1 728:1 729:1 730:1 731:1 732:1 733:1 734:1 #
0.058669208092389721 11:1 30:1 97:1 130:2 180:2 187:1 345:1 361:1 379:1 426:1 443:1 649:1 699:1 852:1 890:1 891:1 892:1 893:1 894:1 895:1 896:1 #
0.058669208092389721 63:1 81:1 116:1 198:1 345:1 672:1 #
0.058669208092389721 11:1 40:1 165:1 578:1 579:1 580:1 581:1 582:1 583:1 584:1 #
0.058669208092389721 24:1 345:2 347:1 498:1 639:1 670:1 1004:1 1005:1 1006:1 1007:1 #
-0.017731700646281236 24:1 98:1 321:1 447:1 455:1 618:1 619:1 673:1 798:1 799:1 800:1 801:1 802:1 803:1 #
-0.054738077678493861 5:1 26:1 63:1 81:1 97:1 218:1 243:1 244:1 335:2 351:1 397:1 490:1 491:1 492:1 493:1 494:1 495:1 496:1 497:1 498:1 499:1 #
-0.058669208092389721 30:1 59:1 81:1 358:1 361:1 461:1 462:1 463:1 464:1 465:1 #
-0.058669208092389721 168:1 361:1 461:1 687:1 #
-0.038908482285817704 136:1 642:1 770:1 771:1 772:1 773:1 #
0.033651568181132727 5:2 43:1 48:1 63:1 71:1 117:1 215:1 345:3 405:1 408:1 409:1 410:1 411:1 412:1 413:1 414:2 415:2 416:1 417:2 418:1 419:1 420:1 421:1 422:1 423:1 424:1 425:1 426:1 #
0.057711862784373284 5:2 55:1 357:1 361:2 508:1 534:1 1263:1 1264:2 1265:1 1266:1 1267:1 1268:1 #
-0.052928236134801666 5:2 101:1 113:1 127:1 180:1 294:1 350:1 417:1 442:1 842:1 843:1 844:1 845:1 846:1 847:1 848:1 849:1 850:1 851:1 852:1 #
-0.017753797579831934 5:1 30:1 43:1 48:1 59:2 127:1 160:1 334:1 357:2 361:2 393:1 422:1 463:1 524:1 598:1 729:1 805:1 917:1 936:1 937:1 938:1 939:1 940:1 941:1 942:1 943:1 944:1 945:1 946:1 947:1 948:1 949:1 950:1 951:1 952:1 953:1 #
-0.0079445388095591707 5:1 48:1 55:1 101:1 155:1 212:1 268:1 335:1 345:2 347:2 417:1 446:1 448:1 449:1 486:1 519:1 520:1 521:2 541:1 555:1 624:1 627:1 681:1 682:1 683:1 684:1 685:1 686:1 687:1 688:1 689:1 690:1 691:1 692:1 693:1 694:1 695:1 696:1 697:1 698:1 699:1 700:1 701:1 702:1 703:1 704:1 705:1 #
-0.0086013677508050002 5:1 101:2 212:1 361:1 389:1 569:1 697:1 790:1 1081:2 1082:1 1083:1 1084:1 1085:1 1086:1 1087:1 1088:1 1089:1 #
0.058669208092389721 113:1 #
0.058669208092389721 644:1 #
0.058669208092389721 397:1 500:1 501:1 #
-0.058669208092389721 774:1 775:1 #
-0.058669208092389721 795:1 796:1 797:1 #
-0.058669208092389721 902:1 903:1 #
-0.054309064474464736 199:1 1069:1 1070:1 1071:1 #
0.047155546219090717 5:1 46:1 55:2 57:1 127:1 128:2 238:1 260:1 284:1 335:3 345:1 361:1 432:1 433:1 448:1 449:1 470:1 471:2 553:1 711:1 1058:1 1059:1 1060:1 1061:1 1062:1 1063:1 1064:1 1065:1 1066:1 1067:1 1068:1 #
0.03933520341235993 5:2 55:1 60:1 67:2 81:1 99:1 358:1 361:2 459:1 477:1 504:1 805:1 821:1 851:1 885:1 1037:1 1038:1 1039:1 1040:1 1041:1 1042:1 1043:1 1044:1 1045:1 1046:1 #
0.058669208092389721 5:1 11:1 59:2 95:1 113:1 361:1 373:1 389:1 394:1 1158:1 1159:1 1160:1 1161:1 1162:1 1163:1 1164:1 1165:1 #
0.058669208092389721 5:1 64:1 81:1 97:1 313:1 347:1 361:1 381:1 464:1 470:1 551:1 713:1 985:1 1091:1 1092:1 1093:1 1094:1 1095:1 1096:1 1097:1 1098:1 1099:1 #
0.058669208092389721 5:1 113:2 304:1 361:1 440:1 549:1 711:1 852:1 897:1 898:1 899:1 #
-0.035108015018060851 5:2 59:2 71:1 113:2 140:1 520:1 579:1 973:1 1149:1 1150:1 1151:1 1152:1 1153:2 1154:1 1155:1 1156:1 1157:1 #
-0.058669208092389721 5:1 30:1 40:1 128:1 321:1 361:3 393:1 587:1 697:1 709:1 2033:1 2034:1 2035:1 2036:1 #
-0.058669208092389721 5:1 31:1 55:1 238:1 361:1 389:1 417:1 445:1 470:1 708:1 709:1 710:1 711:2 #
0.058669208092389721 64:1 345:1 347:1 417:2 449:2 1054:1 1055:1 1056:1 1057:1 #
0.058669208092389721 5:1 186:1 389:1 458:1 508:1 729:1 768:1 1169:1 1174:1 1209:1 #
-0.058669208092389721 345:1 443:1 448:1 449:1 486:1 487:1 488:1 489:1 #
0.058669208092389721 5:1 30:1 55:1 63:1 70:1 210:1 245:1 299:1 345:1 417:1 587:2 668:1 669:1 670:1 671:1 #
-0.014939170648841617 5:1 33:1 55:1 59:1 63:1 66:1 98:1 113:1 157:1 161:1 321:1 382:2 387:1 389:2 424:2 502:1 503:1 504:1 505:1 506:1 507:1 508:1 509:1 510:1 511:1 512:1 513:1 514:1 515:1 516:1 517:1 518:1 #
-0.058669208092389721 335:1 529:1 530:1 #
-0.058669208092389721 48:1 55:1 63:1 886:1 887:1 888:1 889:1 #
0.058669208092389721 5:1 361:1 422:1 981:1 1260:1 2202:1 2203:1 2204:1 2205:1 2206:1 2207:1 2208:1 #
0.058669208092389721 5:1 29:1 477:1 901:1 904:1 905:1 #
0.058669208092389721 5:1 148:1 305:1 1090:1 #
-0.044283219695343511 5:2 148:1 339:1 455:1 618:1 820:1 1225:1 2024:1 2025:1 2026:1 2027:1 #
-0.039288566393683333 5:3 97:1 210:2 389:2 397:1 455:1 676:2 785:1 786:2 787:2 788:1 789:1 790:1 791:1 792:1 #
-0.058669208092389721 11:1 62:1 180:1 706:1 707:1 #
-0.058669208092389721 5:1 361:1 705:1 916:1 #
-0.058669208092389721 5:1 510:1 #
0.058669208092389721 5:1 530:1 586:1 587:1 588:1 589:1 590:1 #
0.058669208092389721 5:1 837:1 #
-0.058669208092389721 68:1 229:1 361:1 588:1 637:1 #
-0.014694682703249026 5:1 7:1 291:1 299:1 318:1 477:1 519:1 618:1 687:1 782:1 1109:1 1133:1 1134:1 1135:1 1136:1 1137:1 1138:1 1139:1 1140:1 1141:1 1142:1 1143:1 1144:1 1145:1 1146:1 1147:1 1148:1 #
-0.025461244757861393 5:1 10:1 55:1 97:1 198:1 358:1 430:1 591:1 592:1 593:2 594:1 595:2 596:1 597:1 598:1 599:1 600:1 601:1 602:1 #
-0.045295447727446515 361:1 477:1 1119:1 1120:1 1121:1 1122:1 1123:1 1124:1 #
0.038445282510708043 55:3 68:1 361:2 389:1 393:1 477:2 752:1 805:1 825:1 901:1 984:1 985:1 986:1 987:1 988:1 989:1 990:1 991:1 992:1 993:1 994:1 995:1 #
0.058669208092389721 4:1 82:1 148:1 361:1 852:1 883:1 884:1 885:1 #
0.058669208092389721 4:1 5:1 148:1 345:1 347:1 351:2 387:1 839:1 1182:1 #
0.058669208092389721 5:1 837:1 #
0.058669208092389721 5:1 900:1 901:1 #
-0.058192799925764288 5:2 70:1 113:1 155:2 345:2 347:1 382:1 455:1 503:1 533:1 828:1 829:1 830:1 #
-0.046914759717482352 5:1 94:1 101:1 747:1 838:1 839:1 840:1 841:1 #
0.045189659243942033 5:1 11:1 59:2 68:1 78:1 81:1 117:1 221:1 260:1 294:1 301:1 318:1 347:1 358:1 779:1 782:1 816:1 874:1 1172:1 1247:1 1248:1 1249:2 1250:1 1251:1 1252:1 1253:1 1254:1 1255:1 1256:1 #
0.058669208092389721 44:3 81:1 117:1 292:1 299:1 522:1 616:1 800:1 928:1 1047:1 1048:1 1049:1 1050:1 1051:1 1052:1 1053:1 #
0.058669208092389721 4:1 461:1 629:1 804:1 805:1 806:1 807:1 808:1 #
-0.058669208092389721 260:1 310:1 345:1 448:1 698:1 831:1 832:1 #
-0.03499541936573633 31:1 81:1 201:1 345:1 417:1 510:1 920:1 925:1 951:1 1175:1 1176:1 #
-0.0442371780913597 40:1 417:1 716:1 793:1 794:1 #
-0.058669208092389721 361:1 776:1 #
0.058669208092389721 5:2 58:1 263:1 890:1 996:2 997:1 998:1 999:1 1000:1 1001:1 1002:1 1003:1 #
-0.058669208092389721 417:1 460:1 #
0.058669208092389721 5:1 144:1 260:1 397:1 821:1 1174:1 1181:1 #
0.018308447498734629 5:1 7:1 55:1 198:2 213:1 260:2 328:1 352:1 397:3 425:1 514:1 689:1 816:1 892:1 971:1 1166:1 1167:1 1168:1 1169:2 1170:1 1171:1 1172:1 1173:1 1174:1 #
-0.058669208092389721 128:1 361:1 439:1 585:1 #
0.058669208092389721 5:2 31:1 55:1 63:1 64:1 81:1 347:1 360:1 417:1 449:1 470:1 821:1 833:1 834:1 835:1 836:1 #
-0.019364544829847192 5:1 122:1 180:1 309:1 417:3 448:1 449:3 486:1 519:1 520:1 521:1 522:1 523:1 524:1 525:1 526:1 527:1 528:1 #
-0.019510011241205241 71:1 128:1 237:3 283:1 347:1 393:1 428:1 429:1 438:1 470:1 471:1 472:1 473:1 474:1 475:1 476:1 477:1 478:1 479:1 #
-0.046967659108566526 30:1 853:1 854:1 855:1 856:1 #
-0.0073881070639626265 8:1 99:1 258:1 374:1 485:1 496:1 649:1 650:1 651:1 652:1 653:1 654:1 655:1 656:1 657:1 658:1 659:1 660:1 661:1 662:1 663:1 664:1 665:1 666:1 #
0.054080571433910957 5:2 55:1 357:1 361:2 508:1 534:1 1263:1 1264:2 1265:1 1266:1 1267:1 1268:1 #
0.051045818573542359 5:1 30:1 55:1 63:1 70:1 210:1 245:1 299:1 345:1 417:1 587:2 668:1 669:1 670:1 671:1 #
-0.014646528942734136 5:1 7:1 55:1 63:1 74:1 98:1 113:1 198:1 253:2 321:1 358:2 389:2 414:1 417:1 449:1 508:1 524:1 534:1 555:1 619:1 892:1 921:1 922:1 923:1 924:1 925:1 926:1 927:1 928:1 929:1 #
-0.020504553344564247 125:1 687:1 1125:1 1126:1 1127:1 1128:1 1129:1 1130:1 #
-0.022307324670394344 31:1 59:1 81:1 101:1 113:2 230:1 361:1 422:1 534:1 552:1 747:1 764:1 821:1 862:1 917:1 918:1 919:1 920:1 #
-0.014037788735780567 31:1 46:1 70:1 97:1 359:1 417:1 547:1 783:1 983:1 1177:1 1178:1 1179:1 1180:1 #
-0.023563067476143271 443:1 454:1 461:1 838:1 1131:1 1132:1 #
-0.0053920842952245689 30:1 198:2 253:1 347:1 417:3 497:1 536:1 632:1 816:1 918:1 1073:1 1074:1 1075:1 1076:1 1077:1 1078:1 1079:1 1080:1 #
-0.01157261354576304 5:2 7:1 30:1 63:1 198:1 361:1 588:1 747:1 782:1 862:1 928:1 1100:1 1101:1 1102:1 1103:1 1104:1 1105:1 1106:1 1107:1 1108:1 1109:4 1110:1 1111:1 #
-0.0085276997915943557 48:1 223:1 236:1 417:1 480:1 481:1 482:1 483:1 484:1 485:1 #
-0.035040943478500175 5:1 379:1 455:1 715:1 #
-0.01082666829332374 97:1 637:1 651:1 716:1 718:1 719:1 720:1 #
-0.0074955961191984551 5:1 39:2 113:1 230:1 576:1 723:1 747:1 764:1 765:1 766:1 767:1 768:1 769:1 #
-0.024407827160107622 30:1 417:1 438:1 721:1 722:1 #
-0.010716828317642146 31:1 66:1 201:1 295:1 417:1 983:1 #
-0.0014611117361616665 5:2 31:1 59:1 70:1 101:2 127:1 258:1 299:1 335:1 345:1 347:2 354:1 360:1 387:1 417:2 449:2 455:4 531:2 533:1 555:1 668:1 777:1 778:1 779:1 780:2 781:1 782:1 783:1 784:1 #
-0.00091105665998300221 113:1 223:1 310:1 390:1 541:2 1112:1 1113:2 1114:1 1115:1 1116:1 1117:1 1118:1 #
