SVM-light Version V6.02
0 # kernel type
3 # kernel parameter -d 
1 # kernel parameter -g 
1 # kernel parameter -s 
1 # kernel parameter -r 
empty# kernel parameter -u 
11173 # highest feature index 
392 # number of training documents 
321 # number of support vectors plus 1 
-0.44196307 # threshold b, each following line is a SV (starting with alpha*y)
-0.057700387976067254 12:1 117:2 168:2 181:1 281:1 576:1 954:1 1651:1 3514:2 3877:1 3889:1 3890:1 3891:1 3892:1 3893:1 3894:1 3895:1 #
-0.0075528472465012245 2:1 12:4 36:1 53:1 98:3 107:2 156:1 181:1 202:1 209:2 223:1 256:1 322:1 346:1 377:2 379:1 395:1 396:1 407:1 451:1 476:1 543:1 553:2 572:1 627:1 689:2 785:2 821:1 851:1 931:1 982:1 1054:1 1106:1 1148:1 1267:1 1314:1 1418:1 1436:2 1451:1 2001:1 2074:1 2239:1 2783:1 2786:2 3033:1 3068:1 3596:1 3877:1 3905:1 3906:2 3907:2 3908:1 3909:5 3910:1 3911:3 3912:1 #
-0.068368084395587003 12:2 21:1 46:2 95:1 121:1 202:1 296:1 342:1 373:1 379:1 427:1 766:1 1301:1 1702:1 1790:1 2644:1 3042:1 3168:1 3877:2 7305:1 7646:1 7647:2 #
-0.068368084395587003 12:1 213:1 1223:1 7648:1 #
-0.068368084395587003 98:1 279:1 350:1 785:1 1273:1 2027:1 3820:1 3877:1 7649:1 #
0.039768579423991965 12:1 73:1 98:1 181:2 379:2 385:1 427:1 954:1 1301:1 1557:1 2432:2 2703:2 3877:2 3878:1 #
0.068368084395587003 350:1 #
0.068368084395587003 2:2 129:1 298:1 316:1 #
0.031060646686669885 12:1 53:1 73:1 316:1 3883:1 #
0.068368084395587003 117:1 168:1 447:1 763:1 1599:1 1777:1 3884:1 3885:1 #
-0.01738765403294118 2:3 8:1 12:2 58:1 69:1 73:1 107:1 122:5 129:1 133:1 135:2 139:1 268:1 300:1 316:5 320:1 327:1 361:1 515:1 564:1 618:1 631:1 699:1 701:3 702:1 853:1 1043:1 1046:1 1356:1 2155:1 2381:2 2648:1 2791:1 3843:1 3860:1 4274:1 4410:1 5364:1 5783:1 6476:1 6515:1 6517:1 8095:1 8096:1 8097:1 8098:1 8099:1 8100:1 8101:1 #
-0.068368084395587003 2:2 40:1 53:1 129:1 155:1 264:1 346:1 405:1 642:1 759:1 764:1 1043:1 2237:1 2283:1 2977:2 4147:1 4723:1 8128:1 8129:1 8130:1 #
-0.068368084395587003 2:1 51:1 87:1 129:1 1337:1 8093:1 #
-0.068368084395587003 2:1 13:1 25:1 87:1 107:1 135:1 361:1 385:1 995:1 1066:1 1515:1 1646:1 7656:1 7657:1 #
-0.068368084395587003 73:1 88:3 175:1 207:1 225:1 275:1 513:1 756:1 1213:1 1214:1 1852:1 2138:1 2312:1 2883:1 3920:1 5372:1 6958:1 7847:1 7848:1 #
0.037947887749274586 12:4 13:1 25:2 28:2 36:1 46:2 51:2 95:1 98:2 154:1 181:1 209:2 223:1 240:2 242:1 257:1 277:1 377:2 550:2 608:1 668:2 801:2 856:1 1055:1 1112:1 1170:2 1212:1 1334:1 1346:1 1574:1 1823:1 1970:1 2005:1 2028:1 7701:1 #
0.037154860871588612 2:1 12:4 36:1 98:1 168:1 275:1 328:1 350:1 373:1 563:1 631:1 689:1 741:1 1058:1 1269:1 1319:1 1329:1 1563:1 1683:1 1774:1 1910:1 2001:1 2044:1 2225:1 3127:1 3578:1 3893:1 4241:1 4443:1 4502:1 5136:1 7921:1 7922:1 7923:1 #
0.059839772096532039 12:1 128:1 264:1 453:1 765:1 1370:1 8317:1 #
0.0562203679847504 12:1 215:1 423:1 427:1 467:1 554:1 661:1 2770:1 3877:1 6566:1 7649:1 #
0.064819228334825271 12:2 25:2 28:1 117:3 204:1 207:1 272:1 284:2 356:1 361:1 407:1 480:1 592:1 991:1 1146:1 1395:1 1434:1 1598:1 1757:1 1827:1 2312:1 3877:1 3878:1 7246:1 7931:1 7932:1 #
0.059161627804099462 69:1 73:1 156:1 203:1 407:1 2312:1 3877:1 #
-0.012767220308443614 2:1 7:1 12:5 36:1 51:1 69:1 75:1 76:1 107:1 159:1 168:2 215:1 225:1 240:2 270:1 272:2 295:1 373:1 387:1 430:1 596:1 631:1 664:1 689:1 696:1 739:1 822:1 853:1 1136:1 1433:1 1444:1 1568:1 1602:1 1822:1 2343:1 2470:2 2802:2 2969:1 3081:1 3634:1 4304:1 4661:1 5265:1 7867:1 7868:1 7869:1 7870:1 7871:1 #
-0.016379119333117267 2:1 12:6 46:1 73:1 80:1 87:1 98:1 109:1 117:1 159:1 171:1 173:1 177:1 228:1 244:2 322:1 346:1 373:1 379:2 415:1 455:1 464:1 543:2 630:1 756:1 785:1 805:1 973:2 1136:1 1266:1 1305:1 1310:1 1443:1 1960:1 2008:1 2027:1 2054:1 2057:1 2407:1 2654:1 2720:1 3390:1 3877:3 3926:1 3979:1 4750:1 6316:1 7155:2 8007:1 8008:1 8009:1 8010:1 8011:1 8012:1 8013:1 #
0.038244191299965674 131:1 161:1 396:1 405:1 3246:1 8284:1 #
-0.013550149627236274 12:5 36:1 42:1 62:1 69:1 83:1 98:2 107:1 225:1 407:2 451:1 593:1 763:1 785:1 973:1 1367:1 1528:1 1556:2 2243:1 2434:1 2794:1 3002:1 3708:1 3877:1 3903:1 4354:1 5121:2 6498:1 7724:1 8359:1 8360:2 8361:2 8362:1 8363:1 #
0.068368084395587003 58:1 135:1 279:1 295:1 373:1 2027:1 2514:1 2562:1 3514:1 #
0.0077220926526423228 23:1 350:1 396:1 765:1 8300:1 #
0.062179295290372527 203:1 427:1 3877:1 3895:1 7649:1 8307:1 #
0.045334253834897253 36:1 122:1 247:1 281:1 373:1 1045:3 1076:1 1136:1 1202:1 2476:1 2670:1 4039:1 5782:1 6955:1 7964:1 7965:1 #
0.068368084395587003 350:1 648:1 3877:1 7649:1 8087:1 8242:1 #
-0.068368084395587003 7:1 117:1 257:1 284:1 428:1 591:1 689:1 1306:1 1921:1 2476:1 4932:1 6566:1 7907:1 7908:1 #
-0.068368084395587003 2:1 23:1 36:1 379:1 814:1 1101:1 3877:1 3878:1 5431:1 7844:1 #
-0.068368084395587003 73:1 224:1 702:1 1292:1 2469:1 3401:1 4241:1 6787:1 #
-0.068368084395587003 377:1 2023:1 3878:1 4889:1 5582:1 7991:1 #
-0.068368084395587003 14:1 25:1 95:1 240:1 246:1 367:2 994:1 1950:1 6901:1 7285:1 7661:1 #
0.068368084395587003 12:1 13:1 23:1 25:1 46:1 51:1 98:1 122:1 916:1 991:2 1212:1 1434:1 2232:1 2699:1 7876:1 #
0.004937802131086062 12:4 75:2 98:1 109:1 129:1 135:1 152:1 209:1 240:1 361:1 554:1 660:1 664:1 670:1 689:1 983:1 988:1 1193:1 1452:1 1599:1 1612:1 1921:1 2515:1 2798:1 2808:1 2986:1 4970:1 5397:1 6543:1 7674:1 7675:1 7676:1 7677:1 7678:1 #
0.049245801791660354 12:2 13:1 46:1 79:1 131:1 202:1 275:2 379:1 460:1 550:1 805:1 1234:1 1337:1 1865:1 2238:1 2241:1 2274:1 2654:1 3877:1 7827:1 7828:1 #
0.03182251060733432 12:3 75:1 154:1 171:1 386:1 621:1 663:1 692:1 806:1 832:1 1043:1 1076:1 1136:1 1310:1 1617:1 1664:1 2795:1 3527:1 3877:1 3883:1 6566:1 7649:1 8297:1 #
-0.065078909238111632 12:5 146:1 154:1 172:1 181:1 209:1 238:1 275:2 289:1 300:1 302:2 318:1 351:1 379:1 386:1 405:1 463:1 475:1 554:1 658:1 1217:1 1282:1 1327:1 1563:1 1928:1 2150:1 6589:1 #
-0.0086127366536246051 2:1 8:7 12:6 41:1 46:1 79:1 95:1 103:1 106:1 122:1 152:1 202:1 242:1 352:1 358:1 361:1 459:5 604:1 618:1 670:1 766:1 986:1 1217:1 1269:1 1325:1 1337:1 1361:1 1367:1 1501:1 1508:1 1605:1 1711:1 1718:1 1754:1 1777:1 1903:1 1921:4 2232:1 2669:1 3069:2 3142:1 3263:1 3561:1 4509:1 4515:1 5001:1 7168:1 8099:1 8134:1 8135:1 8136:1 8137:1 8138:1 8139:1 8140:1 8141:1 #
-0.068368084395587003 2:1 12:4 77:1 98:1 129:1 181:1 354:1 379:1 550:1 1305:1 1321:1 2150:1 2725:1 3439:1 7550:1 7833:1 7834:1 #
0.068368084395587003 405:1 451:1 2977:1 5431:1 #
0.022995185047389108 13:1 23:1 86:1 121:1 128:1 133:2 146:1 287:1 300:1 377:1 453:2 630:1 939:1 1424:1 1556:1 1651:1 2301:1 2998:1 3877:1 7927:1 7928:1 #
0.068368084395587003 225:1 930:1 973:1 4632:1 7845:1 7846:1 #
0.068368084395587003 13:1 36:1 46:1 107:1 451:1 2678:1 #
0.0044223338558129635 98:1 246:2 427:1 765:1 1158:1 2703:1 3566:1 3887:1 3888:1 #
-0.065757543007707225 27:1 73:1 451:1 821:1 1164:1 1997:1 4303:1 6566:3 #
-0.068368084395587003 13:1 46:1 592:1 734:1 991:1 1110:1 2810:1 #
-0.068368084395587003 117:1 285:1 386:1 423:1 3877:1 5827:1 7658:1 #
-0.068368084395587003 46:1 98:1 129:1 168:1 240:1 405:1 427:2 729:1 906:1 1054:1 3608:1 3838:1 3877:2 7649:2 #
-0.068368084395587003 73:1 135:1 268:1 1266:1 3877:1 8328:1 #
-0.04143049929140305 121:1 215:1 267:1 360:1 475:1 568:1 596:1 602:1 871:1 1034:1 1051:1 1169:1 1279:1 1387:1 2471:1 3127:1 4692:1 5112:1 5607:1 5713:1 6266:1 6304:1 7874:1 7875:1 #
0.024900770774045046 12:1 73:1 95:1 272:1 379:1 1164:1 1301:1 2593:1 3886:1 #
-0.068368084395587003 25:1 361:1 367:1 681:1 1347:1 2475:1 #
0.027640771589969203 2:1 12:2 23:1 25:1 76:1 79:1 98:1 254:1 317:1 350:1 405:1 407:1 474:1 668:1 689:1 749:1 851:1 853:1 1226:1 1275:1 1631:1 1632:1 1928:1 2079:1 2357:1 2402:1 2468:1 2790:1 2891:1 3171:1 3319:1 3666:1 3846:1 4274:1 4723:1 4788:1 4823:1 5743:1 5931:1 6922:1 7953:1 7954:1 7955:1 7956:1 7957:1 7958:1 7959:1 #
-0.0093914140257178313 2:2 6:1 12:3 25:1 49:1 95:1 98:1 106:1 116:2 117:1 132:1 142:1 171:3 225:1 228:1 247:1 300:1 360:1 383:1 396:1 427:1 474:1 497:1 501:1 608:1 630:2 692:1 704:1 731:1 834:1 916:1 940:1 1058:1 1289:1 1337:1 1340:2 1543:1 1700:1 1730:1 2457:1 2473:1 3082:1 3319:1 3780:1 3816:1 4062:1 4975:1 5095:1 5383:1 6064:1 6566:1 7939:1 7940:1 7941:1 7942:1 7943:1 #
-0.068368084395587003 12:4 25:1 46:1 128:2 240:1 322:1 350:1 500:1 941:1 1549:1 1678:1 1777:1 7618:1 7782:1 8131:1 #
-0.036110694539019036 2:1 12:2 13:2 30:1 46:1 70:2 117:1 172:1 207:1 275:1 350:1 427:1 469:1 522:1 553:1 576:1 765:1 1340:1 1416:1 1599:1 1680:6 1955:1 1963:1 4236:1 4663:1 6568:2 7698:1 7699:1 #
0.064877911689719847 129:1 135:1 467:1 2312:1 2468:1 #
0.068368084395587003 98:1 203:1 766:1 1207:1 1556:1 3877:1 8358:1 #
0.068368084395587003 73:1 1164:1 3877:1 7649:1 #
0.068368084395587003 135:1 1014:1 1683:1 3274:1 3877:1 4630:1 7249:1 #
-0.068368084395587003 2:1 36:1 53:1 58:1 213:1 350:2 361:1 427:1 618:1 785:1 1139:1 1401:1 1683:1 3877:1 4706:1 6011:1 7649:1 7897:1 #
-0.068368084395587003 909:1 1573:1 3877:1 3878:1 #
-0.068368084395587003 2514:1 2670:1 #
-0.068368084395587003 73:1 3877:1 7981:1 7982:1 7983:1 7984:1 7985:1 7986:1 #
-0.068368084395587003 379:1 991:1 2844:1 3838:1 3877:1 7649:1 7659:1 #
0.026458089450659961 12:2 13:3 25:2 46:1 162:1 183:1 194:1 203:1 225:1 240:1 250:1 357:1 373:1 427:1 729:1 856:2 930:1 1268:1 1292:1 1321:1 1524:1 2301:1 4906:1 5675:1 6567:2 7835:1 7836:1 7837:1 #
0.046130528486926899 12:3 75:1 240:1 451:1 1311:1 1349:1 1680:1 1941:1 2013:1 2122:1 2566:1 3069:1 4581:1 6422:1 #
-0.0049318477813901822 12:8 21:1 36:1 69:1 73:1 77:1 108:1 124:1 333:1 341:1 346:1 401:1 597:2 619:1 631:1 653:1 844:1 941:1 945:1 975:3 1036:2 1082:1 1106:1 1160:1 1266:1 1400:1 1418:1 1424:1 1503:2 1548:4 1605:4 1822:1 2043:2 2208:1 2391:1 2552:1 3160:1 3414:1 3651:1 3797:1 6473:1 8164:1 8165:1 8166:1 8167:1 8168:2 8169:2 8170:2 8171:4 8172:3 8175:1 8176:2 8177:1 8178:1 8179:1 8180:1 8355:3 8356:1 8357:1 #
-0.020438378961531178 2:1 12:2 18:1 36:2 98:2 112:1 155:1 194:1 207:1 242:2 265:1 284:2 300:1 372:1 373:3 458:1 630:2 1311:1 1563:1 2451:1 3112:1 3837:2 4144:1 4509:1 7618:1 7720:1 7721:2 7722:1 7723:1 7724:2 7725:4 7726:1 #
-0.068368084395587003 12:1 135:1 240:1 396:1 856:1 985:1 1616:1 2770:1 2929:1 4086:1 7307:1 8314:1 #
0.041134319580735837 2:1 8:1 58:1 361:1 367:1 487:1 571:1 608:1 616:2 801:1 819:1 942:1 995:1 1028:1 1174:1 2840:1 4087:1 4122:1 4409:1 5394:1 5447:1 5775:1 6718:1 7550:2 7664:2 7665:1 #
0.068368084395587003 819:1 1097:1 2477:2 3920:2 6344:1 #
0.020842274618596356 95:1 168:1 209:1 350:1 828:2 2844:1 3855:1 3879:1 4612:1 4924:1 6724:1 7680:1 #
0.0010616958849384594 2:2 12:2 82:1 221:1 225:1 228:1 347:1 350:2 370:1 897:1 1225:1 2083:1 2805:1 3675:1 7997:2 7998:1 7999:1 #
0.021037240117016087 12:1 240:1 395:1 396:1 1302:1 1425:1 2361:1 3665:1 5310:1 8271:1 8312:1 #
-0.027595901524553153 116:2 147:1 209:4 251:1 451:1 638:1 819:1 1451:1 1556:2 2220:1 5200:1 8158:1 8159:1 8160:1 #
-0.068368084395587003 13:1 28:1 272:1 377:1 946:1 5727:1 7849:1 7850:1 #
-0.03112778770029951 2:1 12:1 46:1 95:2 98:1 209:1 257:1 330:2 350:1 428:1 553:1 648:1 681:1 722:1 804:1 930:2 954:1 1223:1 1451:1 1617:1 1967:1 2175:1 2193:1 2575:1 2697:1 3419:1 4487:1 5029:1 6568:1 7005:1 7852:1 7853:1 #
-0.068368084395587003 13:1 290:1 7642:1 #
0.065536428541271813 12:2 46:1 128:1 240:1 373:1 454:1 678:1 916:1 8105:1 8106:1 8107:1 #
0.011207195691520214 12:3 122:1 135:1 240:1 460:1 2043:3 2600:1 4603:2 7093:1 7690:1 #
0.041047562419328804 12:2 36:1 133:2 202:1 462:2 1023:1 1415:1 8288:1 #
0.032638087697803478 12:3 53:1 69:1 73:1 153:1 156:1 379:1 1778:1 3877:1 3905:1 6561:1 7938:1 #
0.066328805025760398 12:1 350:1 521:1 1821:1 3920:1 4620:1 8268:1 #
-0.0052181771831451545 12:4 13:1 69:1 73:2 87:1 98:1 124:2 128:2 135:1 261:1 387:1 407:1 607:1 608:1 785:1 834:1 1230:1 1253:1 1314:1 1401:1 1688:1 1707:1 2006:1 2095:1 2260:1 2810:1 3426:1 3672:1 6566:1 7854:1 7855:1 7856:1 7857:1 #
0.068368084395587003 13:1 25:2 28:2 131:1 275:1 376:1 1829:1 2228:1 7966:1 #
0.03327102019800577 135:1 377:1 497:2 6944:1 7702:2 7703:1 #
0.055563329718639455 12:1 13:1 28:1 83:1 98:2 129:1 152:1 168:3 204:1 220:1 322:1 365:1 396:1 467:1 513:2 564:1 662:1 741:1 758:1 931:1 946:1 1432:1 1852:1 3877:1 3920:2 6093:1 7840:1 7967:1 7968:1 7969:1 7970:1 #
0.043778959589719155 95:1 98:1 322:1 4139:1 8324:1 #
-0.068368084395587003 12:2 25:1 58:1 133:1 154:1 204:1 317:1 350:1 698:1 1651:1 2263:1 2728:1 2844:1 3528:1 5881:1 6384:1 7171:1 7916:1 7917:1 7918:1 #
-0.068368084395587003 12:1 133:1 135:1 204:1 207:1 295:1 509:1 786:1 5500:1 7660:1 #
-0.068368084395587003 12:1 36:1 79:1 154:1 272:1 620:1 1076:1 1230:1 1301:1 1843:1 1999:1 3442:1 8245:1 8246:1 #
-0.068368084395587003 12:1 316:1 505:1 1150:1 1387:1 8248:1 8329:1 #
0.068368084395587003 2:1 8:1 12:1 341:1 356:1 554:1 622:1 689:1 781:1 1443:1 3833:1 8289:1 8290:1 #
0.068368084395587003 12:1 124:1 320:1 618:1 856:1 2929:1 4086:1 8286:1 8287:1 #
0.068368084395587003 12:1 13:1 23:1 25:1 46:1 51:1 98:1 122:1 916:1 991:2 1212:1 1434:1 2232:1 2699:1 7876:1 #
0.068368084395587003 12:1 25:1 95:1 98:1 322:2 361:1 467:1 1852:1 3877:1 4056:1 6827:1 7883:1 7884:1 #
-0.065213371261300127 23:1 267:1 605:1 618:1 847:1 916:1 1493:1 3374:1 7129:1 7830:3 #
-0.068368084395587003 350:1 549:1 834:2 1067:1 1546:1 1679:1 1777:1 2924:1 3263:2 7978:1 7979:1 7980:1 #
-0.038175468487537736 2:1 12:2 25:2 79:1 223:1 451:1 467:1 1061:1 1574:1 2806:2 3877:2 6890:1 #
-0.068368084395587003 12:2 13:1 36:1 133:1 155:1 322:1 832:1 1177:1 1493:1 1503:1 1623:1 1852:1 3838:1 7883:1 8103:1 8354:1 #
-0.068368084395587003 80:1 107:1 240:1 361:1 812:1 1212:1 6599:1 #
0.031153689567135937 7:1 133:1 272:1 300:1 909:1 989:1 1001:1 1598:1 1978:1 2117:1 2464:1 3123:1 3204:1 3455:1 4006:1 5685:1 7660:1 8247:1 8248:1 #
-0.068368084395587003 128:1 223:1 617:1 1034:1 3820:1 6357:1 7886:1 #
0.068368084395587003 12:2 129:1 153:1 154:1 8240:1 #
0.068368084395587003 12:1 129:1 423:1 427:1 631:1 728:1 1067:1 2770:1 2796:1 3246:1 3700:1 3877:1 6566:1 7649:1 8283:1 #
-0.024942710347716491 12:1 35:1 37:1 46:1 62:1 121:1 154:1 325:1 436:1 451:1 468:2 475:1 592:1 856:1 899:1 900:1 909:1 1058:1 1062:1 1397:1 1539:1 1683:1 3055:1 3204:1 3608:1 3611:1 3920:1 4305:1 4490:1 4630:1 5029:2 7457:1 7652:1 7653:1 7654:1 7655:1 #
-0.068368084395587003 98:1 135:1 204:1 290:1 428:1 622:1 781:1 1520:1 2520:2 3257:2 5694:1 6083:1 #
-0.068368084395587003 13:1 36:1 129:2 275:1 451:1 1356:1 1602:1 2310:1 5950:1 5973:1 7829:1 #
-0.068368084395587003 42:1 46:2 55:1 317:1 502:1 1013:1 1196:1 1428:1 1429:1 1451:1 2329:1 7728:1 #
-0.068368084395587003 14:1 275:1 563:1 916:1 4146:1 5090:1 7681:1 #
0.068368084395587003 12:1 80:2 116:1 550:1 664:1 1082:1 1413:1 8243:1 #
0.020766231917255015 2:1 12:2 128:1 240:1 285:1 386:1 427:1 467:1 521:1 703:1 764:1 1063:1 1275:1 3877:1 7649:1 8240:1 8274:1 #
0.050760269602995289 12:1 322:1 350:2 421:1 1314:1 1651:1 1960:1 3877:1 4311:1 5185:1 7929:1 #
-0.059189499766878879 12:3 51:2 95:2 128:1 135:1 285:1 323:1 647:1 1281:1 1874:2 2707:1 3417:1 6114:2 6566:1 7904:2 #
-0.068368084395587003 12:1 23:1 207:1 257:1 775:1 922:1 991:1 1157:1 3877:3 3920:1 6827:1 8150:1 11123:1 11124:1 #
-0.068368084395587003 12:3 343:1 356:1 421:1 435:1 786:1 797:1 1683:1 1730:1 2863:1 3816:1 4014:1 6686:1 8349:1 8350:1 8351:1 8352:1 #
-0.050133051555318553 12:1 155:1 171:2 240:1 266:1 367:1 427:1 654:1 764:1 1136:1 1310:1 1388:1 1425:1 1476:1 1865:1 1960:1 2244:1 2303:1 2547:1 5313:1 8069:1 8070:2 8071:1 #
0.068368084395587003 13:2 275:1 487:1 1212:1 1306:1 1498:1 2323:1 2743:1 7951:1 7952:1 #
0.046586831127672812 62:1 129:1 264:2 276:1 317:1 765:1 781:1 812:1 916:1 1314:1 1324:1 1638:1 4361:1 4686:1 8353:1 #
0.068368084395587003 22:1 98:1 451:1 785:1 828:1 5752:1 7667:1 #
-0.068368084395587003 25:1 240:1 246:1 568:1 1008:1 1067:1 1418:1 3769:1 4062:1 4554:1 #
-0.068368084395587003 28:1 1679:1 #
-0.068368084395587003 1542:1 6573:1 #
-0.068368084395587003 26:1 98:1 270:1 900:1 933:1 8241:1 #
0.014163353890596364 2:3 12:6 36:1 40:1 42:1 53:1 66:1 116:1 129:1 154:3 168:1 171:2 172:2 361:1 405:1 499:1 600:1 652:2 755:1 1189:1 1381:2 1416:1 1677:1 2502:1 2533:1 2703:2 5806:2 7733:2 7893:1 7910:1 7911:2 7912:1 7913:1 7914:2 #
0.022358943660250097 12:1 36:1 42:1 73:1 95:1 128:1 256:1 350:1 373:1 766:1 1704:1 2160:1 2758:1 #
-0.068368084395587003 12:1 98:2 505:1 1821:1 2468:1 2740:1 3022:1 8313:1 #
-0.049912937580831498 12:1 18:1 27:1 98:1 128:1 379:1 394:2 451:1 933:1 1436:1 1975:1 2731:1 3762:1 5000:1 7862:1 7863:2 7864:1 7865:1 7866:1 #
-0.067972249933527407 12:2 98:1 135:1 209:1 279:2 326:1 370:1 405:1 467:1 821:1 1393:1 1418:1 2514:1 2974:1 3531:1 5582:1 8332:2 8333:1 #
0.068368084395587003 51:1 1301:1 1702:1 6308:1 6785:1 #
0.068368084395587003 1054:1 2896:1 #
0.068368084395587003 159:1 240:1 985:1 5366:1 5642:1 #
0.068368084395587003 46:1 95:1 344:1 1125:1 6114:1 8345:1 8346:1 #
0.064318471908658692 12:1 367:1 377:1 2215:1 2534:1 4162:1 4193:1 6945:1 7996:1 8277:1 8278:1 8279:1 8280:1 #
-0.068368084395587003 2502:1 #
-0.068368084395587003 13:1 46:1 224:2 275:1 549:1 1112:1 1631:1 2216:1 5860:1 7872:1 #
0.048675096737592544 12:3 117:1 240:1 361:1 519:1 545:1 689:1 922:1 1582:1 3232:1 3543:1 6326:1 8078:1 #
0.026347706274636638 2:3 12:2 50:1 58:1 70:1 117:1 128:2 129:1 135:1 242:1 290:1 317:1 350:1 373:1 379:1 578:1 1173:1 1424:1 1566:1 1821:1 2703:1 3443:1 3488:1 3790:1 3877:2 3897:1 3898:1 3899:1 3900:1 3901:1 3902:1 3903:1 3904:1 #
0.068368084395587003 133:1 300:1 458:1 654:1 3077:1 #
-0.05268019984360444 8:1 12:1 73:1 122:1 346:1 545:1 619:1 689:1 764:1 1476:1 1573:1 1614:1 1955:1 2318:1 2517:1 3232:1 3237:1 3450:1 3545:1 3567:1 4381:1 5054:1 7992:1 7993:1 7994:1 7995:1 7996:1 #
-0.068368084395587003 664:1 1556:1 1704:1 2266:1 #
-0.068368084395587003 13:1 111:1 129:1 549:1 690:1 946:1 1066:1 #
-0.068368084395587003 12:1 154:1 240:1 630:1 8295:1 8336:1 #
0.068368084395587003 12:2 25:1 28:1 36:1 46:1 53:1 98:1 131:1 275:1 361:1 1532:1 1580:1 1852:1 2238:1 2498:1 7915:1 #
0.048362996433058233 12:1 30:1 36:1 128:1 131:1 156:1 244:1 275:1 380:1 814:1 967:1 1072:1 1707:1 1852:1 2155:1 2428:1 2502:1 3877:1 4196:1 5949:1 6203:1 7975:1 #
0.068368084395587003 12:1 55:1 98:1 240:1 797:1 2520:1 #
0.066408471750677003 12:1 49:1 93:1 94:1 427:1 500:1 726:1 2443:1 3877:1 4416:1 11172:1 11173:1 #
-0.0062513106789500884 12:4 87:3 88:1 168:2 202:2 265:1 300:1 317:1 373:1 467:1 554:1 575:1 626:1 1616:1 3246:1 3665:1 6566:1 7307:1 8211:1 8271:1 8272:1 #
-0.068368084395587003 12:2 454:1 #
-0.043599523391162971 12:1 46:1 168:1 181:1 223:1 250:1 346:1 396:1 405:1 630:1 950:1 1430:1 1963:1 2212:1 2694:1 2703:1 2929:1 3877:1 3880:1 4036:1 4923:1 4934:1 6120:1 8254:1 8291:1 8292:1 8293:1 8294:1 #
-0.068368084395587003 12:2 50:1 60:1 407:1 1014:1 1556:1 2356:1 3441:2 7947:1 7948:1 7949:1 7950:1 #
0.054961737412419373 117:1 129:1 379:1 423:1 549:1 939:1 1054:1 1476:1 1704:1 4382:1 4690:1 7416:1 #
0.068368084395587003 6237:1 #
0.068368084395587003 5024:1 8197:1 #
0.068368084395587003 829:1 8285:1 #
-0.068368084395587003 15:1 25:1 28:1 55:1 129:1 608:1 2266:1 3920:1 #
-0.068368084395587003 128:1 152:1 175:1 180:1 320:1 851:1 1213:1 1214:1 4756:1 5000:1 7838:1 7839:1 7840:1 7841:1 #
-0.068368084395587003 12:1 70:1 153:1 819:1 1928:1 2541:1 4924:1 #
-0.034666787537178764 2:1 12:1 14:1 18:2 27:1 28:1 36:1 40:1 41:1 73:1 360:1 755:1 805:2 1052:1 1103:1 1181:1 1314:1 1564:1 2967:1 3470:1 7728:1 8120:1 8208:1 8209:1 #
-0.068368084395587003 12:1 25:1 95:1 619:1 3016:1 4054:1 5782:1 #
0.033386384903849278 58:1 117:1 350:1 829:1 #
0.039069719851737267 300:1 346:1 396:1 446:1 618:1 741:1 762:1 1289:1 1307:1 1977:1 7536:1 7832:1 8077:1 #
0.068368084395587003 12:1 207:1 297:1 373:1 661:1 #
-0.068368084395587003 62:1 1432:1 1594:1 3877:1 #
0.068368084395587003 12:2 139:1 554:1 821:1 856:1 2118:1 4274:1 8295:1 #
-0.068368084395587003 12:1 361:1 407:1 545:1 2768:1 2974:1 3240:1 3833:1 5049:1 6751:1 8127:1 #
-0.068368084395587003 12:2 171:1 554:1 689:1 886:1 1150:1 2208:1 6566:1 8529:1 9432:1 9916:1 #
0.054924760842990111 53:1 73:1 168:1 350:2 379:1 630:1 871:1 1157:1 2703:1 2844:2 3838:1 3877:1 6606:1 7086:1 #
0.068368084395587003 73:1 1164:1 #
0.030386373137567896 12:1 73:1 95:1 386:1 765:1 1704:1 2266:1 2929:1 #
-0.068368084395587003 51:1 135:1 168:1 2570:1 4973:1 8093:1 #
-0.068368084395587003 36:1 69:1 281:1 513:1 631:1 664:1 669:1 2600:1 4661:1 5397:1 7714:2 #
0.06773334860579984 12:2 53:1 75:1 172:1 350:1 415:1 512:1 1556:2 3877:1 8325:1 8326:1 8327:1 #
0.030983299763493531 2:2 12:2 154:1 168:1 246:1 257:1 300:1 521:1 689:1 806:1 847:1 1040:1 1424:1 2225:1 5422:1 8211:1 8298:1 8299:1 #
0.023685725436113851 12:1 133:1 208:1 553:1 554:1 673:1 689:1 1266:1 1331:1 1334:1 2969:1 3260:1 3414:1 3567:1 6476:1 #
0.068368084395587003 12:1 153:1 #
0.068368084395587003 135:1 520:1 1589:1 4760:1 7643:1 7644:1 7645:1 #
0.022361779403344148 221:1 423:1 525:2 1337:1 1589:1 2670:1 3566:1 3581:2 4241:1 #
0.068368084395587003 36:1 37:1 280:1 346:1 513:1 1225:1 2156:1 5062:1 7671:1 #
0.068368084395587003 23:1 1302:1 #
0.068368084395587003 453:1 1076:1 #
-0.068368084395587003 5146:1 #
0.044976163280726289 2:1 46:2 95:2 111:1 135:1 146:1 168:1 405:1 483:1 638:1 665:1 877:1 1080:1 1381:1 1388:1 1416:1 2336:1 2432:1 2703:1 3877:2 3878:1 7722:1 8281:1 8282:1 #
-0.068368084395587003 3877:1 7902:1 #
0.068368084395587003 12:1 223:1 346:1 377:1 451:1 621:1 978:1 1462:1 3170:1 3511:1 3792:1 8347:1 8348:1 #
0.068368084395587003 12:1 454:1 1309:1 #
0.068368084395587003 12:1 7826:1 #
0.068368084395587003 12:2 107:1 154:1 242:1 703:1 1020:1 2580:1 3230:1 7593:1 8249:1 #
0.018835856013366119 12:1 46:1 95:1 133:1 135:1 502:1 801:1 1285:1 1928:1 2305:1 2522:1 4554:1 7668:1 7669:1 7670:1 #
-0.068368084395587003 12:1 6568:1 #
-0.068368084395587003 12:1 122:1 664:1 812:1 1556:1 2271:1 4760:1 5024:1 5397:1 7668:1 7682:1 7683:1 7684:1 7685:1 #
-0.068368084395587003 12:1 98:1 147:1 168:1 257:1 513:1 785:1 1556:1 1865:1 2203:1 4296:1 7650:1 7651:1 #
0.068368084395587003 427:1 3877:1 7649:1 #
-0.058761583426184621 2:1 12:1 36:1 107:1 121:1 225:1 350:1 361:1 395:1 427:1 451:1 458:1 485:1 1067:1 1362:1 1641:1 1741:1 2758:1 3514:3 3877:1 7649:1 8152:1 #
0.068368084395587003 12:1 991:1 1697:1 3896:1 5437:1 6705:1 6821:1 #
-0.068368084395587003 515:1 1702:1 3896:1 #
-0.068368084395587003 158:1 5032:1 #
-0.068368084395587003 7044:1 7905:1 7906:1 #
-0.068368084395587003 2975:1 8244:1 #
-0.068368084395587003 369:1 607:1 3773:1 7971:1 #
0.068368084395587003 2:1 12:1 240:1 513:1 1339:1 4661:1 8147:1 8148:1 #
0.068368084395587003 12:1 153:1 #
-0.013035633621974433 2:1 8:1 12:7 18:1 73:1 75:1 98:4 115:1 175:1 200:1 213:1 242:1 377:1 387:1 627:1 710:1 771:1 785:2 828:1 954:1 1054:1 1064:1 1146:1 1307:1 1318:1 1568:1 1959:1 2150:1 2239:1 2338:2 2774:3 3343:1 3700:1 3877:1 3907:4 4872:1 4939:1 5236:1 5921:1 6017:1 7300:1 7346:1 7890:1 7891:1 7892:1 7893:1 7894:1 7895:1 7896:1 #
-0.068368084395587003 12:1 58:2 95:1 285:1 342:1 461:1 520:1 775:1 966:1 1181:1 1293:2 3042:1 3432:1 3877:1 4158:1 7266:1 7974:1 #
0.068368084395587003 6785:1 #
-0.068368084395587003 247:1 248:1 699:1 1264:1 1314:1 3276:2 3401:1 #
-0.068368084395587003 367:1 3920:1 8303:1 8304:1 #
0.068368084395587003 12:1 107:1 427:1 1603:1 1875:1 3234:1 3877:1 3896:1 #
0.040329672809653966 2:1 14:1 58:1 72:1 95:1 131:1 135:1 196:1 296:1 326:1 361:1 1181:1 1361:1 3470:2 3865:1 5160:1 6573:1 7667:1 7672:1 7673:1 #
-0.068368084395587003 12:1 112:1 3877:1 7930:1 #
-0.068368084395587003 74:1 159:1 2924:1 3893:1 #
-0.068368084395587003 12:1 36:1 205:1 326:2 969:1 3608:1 3833:1 4047:1 4471:1 8344:1 #
-0.068368084395587003 6890:1 7901:1 #
-0.056352461294043879 2:1 12:1 50:1 213:1 246:1 605:1 608:1 659:1 819:1 931:1 1292:1 1651:1 1687:1 2575:1 2795:1 3417:1 3822:1 8341:1 8342:1 8343:1 #
0.066373396291569145 36:1 99:1 205:1 225:1 453:1 756:1 856:1 1293:1 2770:1 3506:1 8335:1 #
0.068368084395587003 22:1 395:1 441:1 595:1 1199:1 2061:1 8270:1 #
-0.068368084395587003 36:1 1581:1 #
-0.068368084395587003 168:1 593:1 5437:1 #
-0.068368084395587003 2:1 51:1 129:1 168:1 648:1 1337:1 1878:1 3094:1 #
0.068368084395587003 12:1 246:1 521:1 #
0.068368084395587003 12:1 170:1 554:1 2960:1 #
0.068368084395587003 297:1 #
0.052937889713080499 12:1 61:1 450:1 1056:1 1395:1 1549:1 1852:1 2420:1 4573:1 7691:1 7692:1 #
-0.068368084395587003 23:1 3892:1 6089:1 7919:1 7920:1 #
-0.068368084395587003 554:1 6566:1 #
0.015104173904404708 2:2 12:1 23:1 203:1 204:1 207:1 240:1 268:1 290:1 386:1 427:1 766:1 1001:1 1016:1 1049:1 1177:1 1337:2 1436:1 2275:1 2572:1 2703:1 3203:1 3877:2 3929:1 5271:1 5451:1 5530:1 6341:1 7649:1 7844:1 7933:1 7934:1 7935:1 7936:1 7937:1 7938:1 #
0.068368084395587003 2312:1 #
0.045679725043821472 2:1 58:1 129:1 361:1 436:2 922:2 931:1 1071:1 1080:1 2240:1 5805:1 8156:2 8157:1 #
-0.068368084395587003 1062:1 3877:1 3920:1 4756:1 #
0.068368084395587003 996:1 1275:1 3511:1 #
-0.068368084395587003 25:1 223:1 922:1 1007:1 1144:1 #
-0.068368084395587003 12:1 80:2 116:1 139:1 213:1 350:1 618:1 1080:1 1342:1 2188:1 2434:1 7897:1 7898:1 #
0.068368084395587003 6785:1 #
0.068368084395587003 79:1 299:1 554:1 1415:1 1651:1 2770:1 2890:1 3877:1 #
0.061978824705567107 240:1 250:1 4263:1 7693:1 7694:1 7695:1 #
0.068368084395587003 3883:1 #
-0.068368084395587003 151:1 335:1 1573:1 3014:1 7987:1 7988:1 7989:1 7990:1 #
-0.068368084395587003 293:1 939:1 985:1 1451:1 1493:1 1903:1 3090:1 3560:1 #
-0.068368084395587003 980:1 2475:1 3608:1 #
-0.068368084395587003 41:1 67:1 346:1 592:1 1651:1 3877:1 #
0.017573788324075489 12:2 124:1 129:1 154:1 172:1 204:1 240:1 367:1 428:1 591:1 806:1 1076:2 1687:2 2374:1 2845:1 4932:1 7319:1 8315:1 8316:1 #
0.068368084395587003 350:1 #
0.061260565700407145 276:1 300:1 460:1 1337:1 1921:1 2381:1 5449:1 7960:1 #
0.068368084395587003 133:1 418:1 1593:1 2030:1 2834:1 3527:1 4156:1 8149:1 #
-0.068368084395587003 25:1 87:1 128:1 361:1 396:1 550:1 916:1 1009:1 1239:1 1347:1 5802:1 8004:1 8005:1 #
0.068368084395587003 2:1 12:1 95:1 463:1 5440:1 8276:1 #
0.068368084395587003 12:1 95:1 139:1 209:1 326:1 671:1 766:1 980:1 3883:1 6319:1 #
0.043250440421326398 129:1 377:1 396:1 441:1 608:1 782:1 3810:1 3920:1 7686:1 #
0.061405008146440954 98:1 156:1 203:1 396:1 805:1 1451:1 1777:1 1928:1 3877:1 3878:1 4885:1 6645:1 8302:1 #
-0.068368084395587003 51:1 274:1 317:1 418:1 2314:1 8093:1 8094:1 #
-0.068368084395587003 592:1 701:1 1264:1 1634:1 7899:1 7900:1 #
0.017788894836196941 2:2 12:1 95:1 259:1 279:1 300:1 350:1 605:1 700:1 1272:1 1410:1 1972:1 2431:1 3877:1 4340:1 8000:1 8001:1 #
0.068368084395587003 46:1 98:1 240:1 792:1 1903:1 2456:1 7926:1 #
-0.03261892570795541 7:1 12:1 14:2 22:1 25:1 28:1 46:1 95:2 98:1 209:1 234:1 247:1 248:1 257:1 346:1 350:1 379:2 381:1 428:1 451:1 630:1 734:1 785:1 856:1 1511:1 1559:1 2321:1 2442:1 2834:1 3929:1 #
-0.068368084395587003 12:1 14:1 204:1 328:1 565:1 618:1 2580:1 6901:1 #
-0.068368084395587003 3877:2 6890:1 8150:1 8151:1 #
-0.059580316810287422 12:1 36:1 46:1 69:1 128:1 135:1 168:2 215:1 295:1 356:1 487:1 504:1 509:1 868:1 1827:1 2156:1 2416:1 3514:1 5693:1 6475:1 7851:1 #
0.068368084395587003 350:1 #
0.068368084395587003 95:1 634:1 681:1 1599:1 8116:1 8117:1 #
-0.018230648798108096 2:1 7:1 20:1 49:1 87:1 98:1 132:1 155:1 175:1 225:1 320:1 350:1 513:2 759:1 861:2 1132:1 1455:1 1569:1 2088:1 2570:1 5000:1 6655:1 7715:1 7716:1 7717:1 7718:1 7719:1 #
0.058688913230927911 12:1 13:1 79:1 275:1 553:1 554:1 2156:2 5030:1 8006:1 #
0.037912828069676073 12:1 154:1 396:1 451:2 2684:1 4006:1 7234:1 #
0.0351735127659661 12:1 154:1 161:1 367:1 396:1 451:1 505:1 2770:1 3246:1 3569:1 3808:1 5200:1 8301:1 #
-0.068368084395587003 12:1 154:1 223:1 359:1 592:1 764:1 1054:1 1196:1 1451:1 3200:1 4842:1 7728:1 #
-0.068368084395587003 12:1 58:1 61:1 213:1 1868:1 3505:1 5030:1 5582:1 #
-0.068368084395587003 12:1 146:1 658:1 6566:1 #
-0.068368084395587003 25:1 430:1 #
-0.012333305309328581 12:2 23:1 46:1 213:1 247:1 346:1 451:1 545:1 659:1 1207:1 1273:1 1476:4 1683:1 3041:1 3092:1 3345:1 3877:1 3896:1 3961:1 5537:1 6680:1 7976:1 7977:1 #
0.035646344711374442 36:1 132:2 133:2 135:1 168:1 207:1 346:1 462:1 670:1 673:1 989:1 1054:1 2643:1 3266:1 4702:1 8144:1 8145:1 8146:1 #
0.068368084395587003 73:1 135:1 254:1 1112:1 #
0.068368084395587003 135:1 297:1 951:1 #
0.002156904356739521 58:1 98:1 129:2 170:1 181:1 240:1 293:1 295:1 454:1 765:1 832:1 951:1 1381:2 1573:1 1697:1 1888:1 2079:1 2467:1 2631:1 3920:1 4144:1 4503:1 8337:1 8338:1 8339:1 8340:1 #
-0.068368084395587003 405:1 505:1 3820:1 3877:1 3896:1 #
-0.068368084395587003 23:1 25:1 175:1 533:1 633:1 #
0.068368084395587003 350:1 379:1 427:1 487:1 1301:1 3877:1 #
0.019846178498740118 2:1 12:2 36:1 95:1 129:1 153:1 238:1 341:1 377:1 379:2 574:1 765:1 1418:1 2156:1 2960:1 3877:1 3920:1 4012:1 #
-0.016762666604744517 12:2 23:1 36:1 51:1 95:1 146:2 155:1 181:1 207:1 225:1 330:1 331:1 350:1 361:1 522:1 553:1 832:1 853:1 1037:1 1777:1 2280:1 2502:1 2691:1 7519:1 7831:1 7832:1 #
0.067680684217492459 12:1 53:1 117:1 128:1 346:1 2572:1 4690:1 4924:1 #
0.012353379603525637 2:1 12:1 28:1 168:1 208:1 232:1 272:1 295:1 300:1 405:1 436:1 448:1 467:1 475:1 608:1 619:1 939:1 1023:1 1081:1 1181:1 1275:1 1475:1 1691:1 1701:1 1852:1 1977:1 2040:1 2180:1 2463:1 2520:1 2685:1 2740:1 2790:1 2886:1 3018:1 3092:1 3276:1 3341:1 3541:1 4447:1 4822:1 5024:1 5285:1 5296:1 5337:1 5998:1 7397:1 7664:1 8108:1 8109:1 8110:1 8111:1 8112:1 8113:2 8114:1 8115:1 #
0.068368084395587003 154:1 453:1 #
0.020578717068043144 12:2 55:1 129:1 240:1 454:1 1414:1 1697:1 4159:1 #
0.068368084395587003 2:1 298:1 3883:1 #
-0.037987644004011147 12:2 13:2 155:2 275:1 330:1 350:1 608:1 916:1 1563:1 2117:1 2697:1 3099:1 6566:1 #
0.041395760360907426 12:1 117:1 135:1 1483:1 1557:1 1649:1 1683:1 #
0.068368084395587003 95:1 142:1 1164:1 #
-0.048878568846567327 8:1 184:1 320:1 327:1 701:1 909:1 1451:1 2263:1 2323:1 2648:1 4156:1 4487:1 7068:1 7844:2 7873:1 #
-0.068368084395587003 87:1 325:1 330:1 384:1 513:1 630:1 809:1 3920:1 7100:1 7650:1 7727:1 #
-0.0352322322802179 25:1 46:1 69:1 330:1 578:1 634:1 645:1 1178:1 1285:1 2203:1 2468:1 2697:1 3026:1 3204:1 3284:1 3571:1 4304:1 4961:1 7924:1 7925:1 #
-0.010892321454682184 12:1 25:3 28:3 70:1 133:1 181:1 272:1 281:1 347:1 557:1 562:1 819:1 946:1 1331:1 1955:1 3929:1 6624:1 7706:1 #
0.011435993057403436 2:1 133:1 135:1 316:1 819:1 1293:1 1331:1 1683:1 4263:1 4630:1 4690:1 7695:1 7700:1 #
0.036899309592048082 12:1 135:1 240:1 296:1 1263:1 2600:1 3627:1 4554:2 7696:1 7697:1 #
0.068368084395587003 12:1 73:1 454:1 663:1 1071:1 2034:1 #
0.034983962814525836 55:1 221:1 300:1 429:1 476:1 922:1 1978:1 2464:1 2662:1 6802:1 #
0.037672869770511645 2:1 12:1 95:1 98:1 240:1 298:1 785:1 6418:1 #
0.027260430177938656 53:1 73:1 129:1 296:1 1112:1 2066:1 #
0.010578134646560433 12:1 135:1 240:1 2040:1 4263:1 4912:1 7324:1 7695:1 #
-0.032016640060246827 2:1 12:1 25:1 155:1 175:1 223:1 240:1 265:1 497:1 658:1 967:1 1602:1 3657:1 7885:1 #
0.019869256427155361 12:1 128:1 154:1 203:1 386:1 423:1 428:1 689:1 806:1 3877:1 3880:1 7680:1 8250:1 #
0.0071716225182766723 2:1 87:1 131:1 203:1 396:1 1425:1 5310:1 6237:1 #
0.004132509552961028 240:1 386:1 423:1 663:1 #
-0.022024653272125962 13:1 25:1 36:1 361:1 367:1 1139:1 1177:1 1559:1 6568:1 8002:1 8003:1 #
-0.036683062639466288 12:1 25:1 51:1 79:1 80:1 172:1 223:1 6363:1 6566:1 #
-0.0031816101315068875 2:2 7:1 13:1 14:1 41:1 50:2 168:1 227:1 242:1 281:1 299:1 320:1 346:1 367:1 579:1 630:1 692:1 701:1 753:1 1407:1 1707:1 1852:1 2008:1 2329:1 2416:1 2426:1 6203:1 8132:1 8133:1 #
0.0011150392637982577 2:1 12:4 41:1 76:1 87:1 98:1 109:1 129:1 205:3 225:1 240:5 278:1 323:1 326:3 346:1 408:2 427:1 481:1 501:1 510:1 782:1 785:1 841:1 919:1 1014:1 1019:1 1082:3 1164:1 1295:1 1313:1 1834:2 2169:1 2352:1 2728:4 3020:1 3523:1 3581:1 3666:1 3688:1 3833:1 3932:1 4241:1 4490:1 6333:2 6353:1 6439:1 6528:1 7454:1 8258:4 8259:1 8260:1 8261:1 8262:1 8263:1 8264:1 8265:2 8266:1 8267:1 #
0.068368084395587003 12:1 154:1 806:1 1076:1 #
0.020538957382363457 12:1 154:1 1007:1 1076:1 6785:1 #
0.042847771996071142 12:1 135:1 386:1 423:1 427:1 2929:1 3877:1 7649:1 #
-0.0075638291062905408 12:1 14:1 25:2 169:1 393:1 513:1 664:1 703:1 1080:1 1558:1 2008:1 5397:1 7730:1 #
0.057202016111000453 129:1 350:1 765:1 #
0.0096697406222304369 12:2 36:1 53:1 73:1 98:1 379:1 573:1 692:1 742:1 780:1 871:1 1415:1 1451:1 1557:1 2169:1 2417:1 2432:2 2703:1 2844:1 3751:1 3877:2 6561:1 7961:1 7962:1 7963:1 #
0.0067192516614755565 13:1 171:1 172:2 347:1 377:1 405:1 451:1 460:1 573:1 622:1 638:1 781:1 791:1 1007:1 1112:1 1428:1 2156:1 2238:1 2976:1 3470:1 3675:1 4039:1 4603:1 5067:1 7234:1 7662:1 7663:1 #
0.052682306836763733 117:1 350:1 #
0.0060002079591595118 79:1 765:1 1301:1 1417:1 2703:1 2795:1 3878:1 7909:1 #
0.0090851279579783235 12:1 22:1 55:1 135:1 153:1 396:1 608:1 #
0.00081319416298101458 12:1 161:1 240:1 653:1 687:1 1302:1 2266:1 2552:1 2768:1 2770:1 3246:1 5432:1 8321:1 #
0.00087889990836914969 12:1 46:1 117:1 203:1 942:1 1174:1 7343:1 #
