SVM-light Version V6.02
0 # kernel type
3 # kernel parameter -d 
1 # kernel parameter -g 
1 # kernel parameter -s 
1 # kernel parameter -r 
empty# kernel parameter -u 
1262 # highest feature index 
11 # number of training documents 
12 # number of support vectors plus 1 
0.93360818 # threshold b, each following line is a SV (starting with alpha*y)
-0.0076163576510559243 39:1 101:1 107:1 108:1 109:1 110:1 111:2 112:1 113:1 114:1 115:1 116:1 117:1 #
-0.015679276901008243 5:2 31:1 39:1 48:1 230:1 239:1 329:1 331:1 342:1 572:1 619:1 723:2 742:1 1215:1 1216:1 1217:1 1218:1 #
-0.0082293393622364409 5:1 31:1 39:2 44:1 46:1 71:1 113:3 122:1 198:1 263:1 329:1 338:1 389:1 417:1 568:1 619:1 723:1 784:1 924:1 1217:1 1219:1 1220:1 1221:1 #
-0.0078123071787440396 5:3 39:1 59:1 63:1 89:1 97:1 101:1 148:1 335:1 389:1 472:1 547:1 1186:1 1190:1 1219:1 1222:1 1223:1 1224:1 1225:1 1226:1 #
-0.008947798723069925 5:2 55:1 59:1 117:1 263:1 275:1 276:1 1054:1 1190:1 1227:1 1228:1 1229:1 1230:1 1231:1 1232:1 #
0.050937471415776578 39:1 40:1 41:1 42:1 43:1 #
0.044526850138784213 5:2 17:1 30:1 39:3 48:1 52:1 55:1 59:1 64:1 78:1 81:1 107:1 148:1 156:2 180:1 216:1 219:2 263:1 329:3 330:1 331:1 332:1 333:1 334:1 335:1 336:1 337:1 338:1 339:1 340:1 341:1 342:1 343:1 #
-0.01506230127758895 5:1 39:2 43:1 53:1 81:1 338:1 486:1 723:1 946:1 1236:1 1237:2 1238:1 1239:1 1240:1 1241:1 1242:1 1243:1 #
-0.020683993276466601 39:2 59:1 63:1 97:1 116:1 623:1 1215:1 1233:1 1234:1 1235:1 #
-0.0086908569761432741 33:1 81:1 833:1 1054:1 1257:1 1258:1 1259:1 1260:1 1261:1 1262:1 #
-0.0027420902082473816 13:1 53:1 253:1 305:1 390:1 619:1 829:1 1090:1 1245:1 1246:1 #
